lstm/lstm_cell/kernel:0
(1, 320)
[[ 0.08823356 -0.09659055  0.07220035 -0.19477063 -0.18901555  0.08306117
   0.06667244  0.17157792 -0.02274943 -0.04972968  0.05380077  0.00938126
  -0.146586   -0.04795621  0.10889314 -0.060304    0.03072575 -0.07005014
  -0.18011467 -0.11780605 -0.08414137 -0.07372861  0.05176869 -0.15629429
  -0.00310571 -0.07273877  0.04187761 -0.00049625  0.08472653  0.04182562
  -0.18149453  0.11720806 -0.28125983  0.02082395 -0.0306369  -0.02074942
   0.07067982 -0.0268326   0.12553394  0.0358746  -0.13418089  0.11104243
   0.07808311  0.08546104 -0.02723364 -0.14710176 -0.02461285 -0.05326231
   0.03784768 -0.13398746 -0.25688455 -0.23821288 -0.12155651 -0.03280149
  -0.0516784  -0.01636275 -0.01439031  0.1523882  -0.29128122 -0.02429597
  -0.17154527 -0.07351305 -0.17421873 -0.02791035  0.1204166  -0.14315657
   0.09344615 -0.04806356 -0.09819004  0.15436526  0.04804796 -0.07440098
  -0.00320469  0.13219619  0.07094655 -0.08486006 -0.16534403  0.05582327
  -0.2830588   0.02082714 -0.06119856 -0.05723393  0.15082441 -0.17691812
  -0.09816659 -0.02953941  0.10575772  0.12709118 -0.05912731 -0.15071775
  -0.10478203  0.13224554  0.07564668  0.15017031  0.0623725   0.00711969
  -0.03468637  0.10050916 -0.04541948 -0.0558156  -0.04888465  0.07641435
   0.05052415 -0.00391194 -0.09119195 -0.1298999  -0.17568167  0.1415288
  -0.05717043  0.06560088 -0.08200667 -0.09151492 -0.16684635 -0.08228417
  -0.1030915  -0.00599504  0.12834197 -0.03291732 -0.02340016 -0.01677527
  -0.14746037  0.08510783  0.00913439 -0.06700423 -0.02802227  0.00550684
  -0.09044444 -0.07202145  0.096746   -0.1357927  -0.0853691  -0.13948362
  -0.09443644  0.09767206  0.0174422  -0.08460695  0.05192415  0.19976063
  -0.21248846  0.01951116  0.01827977 -0.04124355 -0.12452111 -0.04384791
   0.04505618 -0.18657583  0.16051137  0.01061467 -0.08595838  0.08544104
   0.08981083  0.14324145  0.06896232 -0.02853695  0.01373516 -0.0355651
  -0.03792096 -0.00282492 -0.04455985  0.02834485  0.10457943  0.12469157
  -0.10725476  0.1262488   0.10868245  0.1085049   0.10019192  0.1263797
   0.08066554  0.11795008 -0.1231543  -0.1317961  -0.11617156 -0.12258914
   0.13406453 -0.14634246  0.13713539 -0.09224416 -0.03910519  0.13770647
   0.1383475   0.1347044  -0.09283689 -0.09310328  0.08812203  0.11896801
  -0.09067746 -0.13452326 -0.1253924   0.10247693  0.11809721  0.1309569
  -0.09767409  0.10859928  0.07773476  0.08730699  0.11525115  0.13880336
   0.10766055  0.10625598  0.09549858 -0.12048321  0.12582372 -0.09870003
  -0.11098465 -0.09026415  0.09456676 -0.0840496   0.12595877  0.03157761
   0.08835893  0.09096801 -0.02739244  0.09332591 -0.13574582 -0.14155172
   0.14233574  0.12821038  0.08916534 -0.1423835  -0.10693012  0.08073696
   0.10392506 -0.09365837  0.09317499 -0.10782443  0.11343619  0.13192552
   0.1234635  -0.12733041 -0.14026016  0.11822244  0.09968689  0.09685499
  -0.12174346 -0.13440275  0.08673206 -0.13229541  0.10767924  0.12674125
  -0.01214369 -0.03423541 -0.00287388 -0.12408485 -0.1735462  -0.08434621
   0.0045016   0.06318808 -0.00959475 -0.07291956 -0.14268851 -0.11510622
  -0.13967977  0.01149065 -0.03001608 -0.10184021  0.01445395 -0.15712517
  -0.2896287  -0.17871262  0.03351527 -0.07467557  0.06246326 -0.17371282
  -0.12652431 -0.05994403 -0.049341    0.08989341 -0.11108469 -0.12068851
  -0.15931432  0.12876387 -0.09573101 -0.15375647 -0.26127476  0.02836826
  -0.08115599 -0.08578211  0.10575853 -0.01399691 -0.11796937  0.12905867
   0.01674143 -0.11339299  0.03449579 -0.22518839 -0.03210269 -0.1891157
   0.01095395 -0.22457811 -0.10898202 -0.25704697 -0.12676553  0.01965515
  -0.1065056   0.04548838  0.01522143  0.10529872 -0.2123948   0.03010081
  -0.10999319 -0.13160446 -0.11829033 -0.03707861  0.11950442 -0.00661761
  -0.04507353  0.04301083  0.10129149  0.14664832 -0.05253362  0.09398749
  -0.06438413  0.13300398 -0.12055583 -0.11915101 -0.00805634 -0.07608605
  -0.24464995  0.12525132]]
lstm/lstm_cell/recurrent_kernel:0
(80, 320)
[[-0.01097945  0.03375072  0.09644832 ...  0.0540894  -0.03757914
   0.1279322 ]
 [ 0.01194902  0.0321846   0.0375866  ... -0.02603805  0.02745093
   0.05930117]
 [-0.0300057  -0.11040961  0.01045959 ... -0.22726317  0.0435572
  -0.04740619]
 ...
 [ 0.00864157 -0.00125761 -0.01251041 ...  0.02733397 -0.02034793
  -0.05650801]
 [-0.10218494 -0.14705412 -0.00130219 ... -0.03772786 -0.06806143
   0.06130892]
 [ 0.1517946  -0.01743104  0.07958365 ...  0.06438432 -0.00227784
   0.07403302]]
lstm/lstm_cell/bias:0
(320,)
[-0.07152622 -0.04137953 -0.09063163 -0.05493828 -0.11316108 -0.0607367
 -0.05367997 -0.05207203 -0.09787624 -0.04311398 -0.05473802 -0.04654397
 -0.03809912 -0.05848899 -0.06808814 -0.03546229 -0.0450331  -0.12742987
 -0.1890216  -0.08321086 -0.05290095 -0.04024563 -0.0831864  -0.136274
 -0.11676775 -0.04122087 -0.10696244 -0.0306618  -0.06040582 -0.0624017
 -0.14715649 -0.04341256 -0.13578269 -0.06179758 -0.15119945 -0.07921427
 -0.05263551 -0.04737298 -0.07050041 -0.0731644  -0.06035186 -0.05222768
 -0.05084214 -0.06415849 -0.0548722  -0.12221108 -0.12643611 -0.18813267
 -0.04991584 -0.24034747 -0.18366517 -0.21220437 -0.21224265 -0.04983753
 -0.07072588 -0.05942104 -0.04242127 -0.05777053 -0.20302784 -0.03274923
 -0.08413126 -0.13570322 -0.08984675 -0.07305487 -0.08982512 -0.0623671
 -0.0687695  -0.05644101 -0.05398739 -0.04441597 -0.05060171 -0.04682029
 -0.07155512 -0.0753668  -0.04722773 -0.05402496 -0.18876114 -0.04766332
 -0.1634414  -0.05186173  0.9389933   0.97116303  0.9291251   0.9579942
  0.8870297   0.9417321   0.92875683  0.96720797  0.8855301   0.9598428
  0.9493685   0.973897    0.9692286   0.9606369   0.9682247   0.9731762
  0.97493297  0.88060015  0.8147101   0.95369154  0.9723623   0.9727476
  0.92214274  0.8703762   0.89073956  0.96644086  0.87499356  0.98202807
  0.9666818   0.93914276  0.8747605   0.97267246  0.8106214   0.9348527
  0.8860097   0.91566205  0.96361965  0.9699592   0.94371957  0.9490957
  0.9401444   0.95374465  0.9658573   0.95000243  0.956146    0.88739556
  0.889731    0.8193275   0.9640891   0.7960379   0.83032197  0.8083777
  0.8315177   0.9475585   0.96847457  0.96889913  0.9703234   0.96614504
  0.77730256  0.9837684   0.9100121   0.8485654   0.89078826  0.9081139
  0.9197953   0.9367032   0.9438494   0.9646409   0.9640727   0.9776391
  0.9655687   0.9717116   0.92370856  0.9246946   0.96596134  0.97088355
  0.82949597  0.9728187   0.8723075   0.9620757  -0.05203525 -0.05573019
  0.04591661 -0.05335097 -0.04552308 -0.0513669  -0.0489011  -0.06479714
 -0.03845456 -0.05264756  0.05731888  0.05771083  0.05426497  0.05763227
 -0.06574322  0.06651635 -0.0645569   0.04584245  0.01662756 -0.06184992
 -0.06401104 -0.06349765  0.0425915   0.04510734 -0.03530022 -0.05259524
  0.03671687  0.07200877  0.06121689 -0.04509054 -0.0521374  -0.05891482
  0.04570045 -0.04770502 -0.04090906 -0.04027214 -0.05131339 -0.06641308
 -0.05878538 -0.05556157 -0.0416489   0.05815339 -0.06444291  0.0474758
  0.05013335  0.03587712 -0.04559483  0.04280178 -0.05955168 -0.01087724
 -0.039487   -0.03633254  0.01780999 -0.04830824  0.06045754  0.07058249
 -0.06773491 -0.06453719 -0.03632627  0.07373502  0.04669868 -0.03521257
 -0.04716778  0.04555953 -0.04861252  0.04324001 -0.05699402 -0.06121782
 -0.06260797  0.06342427  0.06657234 -0.06011297 -0.04446928 -0.04837877
  0.06109193  0.06036784 -0.0428834   0.06155384 -0.0571573  -0.06648344
 -0.06748424 -0.04130062 -0.08810095 -0.05412012 -0.11150401 -0.05569603
 -0.05562041 -0.04900144 -0.09752712 -0.04257188 -0.0512179  -0.04306212
 -0.03706942 -0.06103656 -0.06378081 -0.03390031 -0.04343796 -0.12347481
 -0.18960334 -0.08166022 -0.05304236 -0.03857982 -0.08500595 -0.13552235
 -0.11643787 -0.04051841 -0.10467207 -0.03905494 -0.05659783 -0.05835986
 -0.14711219 -0.04330142 -0.13266475 -0.05990161 -0.15195855 -0.07966324
 -0.04845306 -0.04527946 -0.07265294 -0.07213614 -0.06033907 -0.05542168
 -0.04872331 -0.06039194 -0.05457033 -0.12224542 -0.12641375 -0.18659385
 -0.04811385 -0.24124672 -0.18545184 -0.21338294 -0.21136759 -0.04936619
 -0.06901898 -0.06238586 -0.0425093  -0.05959544 -0.20174004 -0.03699851
 -0.08286647 -0.13571799 -0.08845261 -0.07231255 -0.09086825 -0.06228685
 -0.06535691 -0.05734682 -0.05937546 -0.04451432 -0.04659967 -0.05173207
 -0.070301   -0.07696196 -0.04218218 -0.05291026 -0.1973288  -0.04407117
 -0.16063322 -0.0547209 ]
lstm_1/lstm_cell/kernel:0
(80, 400)
[[-0.06986283  0.10471213  0.01333897 ...  0.00893437  0.09610142
  -0.00254125]
 [-0.05190451 -0.03151094 -0.05100176 ...  0.0605885   0.03376714
   0.04422469]
 [-0.05123119 -0.09253641  0.07780346 ... -0.09062969  0.01040863
  -0.01817525]
 ...
 [ 0.08433911  0.02152274 -0.04145555 ...  0.02395106  0.04360369
  -0.06750525]
 [-0.05707821 -0.09224295 -0.03274757 ...  0.08183579 -0.03562067
  -0.02800971]
 [-0.01382227  0.07477732  0.01769895 ...  0.05341649  0.05684197
   0.09790557]]
lstm_1/lstm_cell/recurrent_kernel:0
(100, 400)
[[-0.05378138  0.06469771  0.00113932 ... -0.00023181  0.01241348
  -0.01028155]
 [-0.01264852 -0.02654783 -0.06382038 ...  0.03065371 -0.01184013
   0.02210598]
 [ 0.01636688  0.12059286  0.00015088 ...  0.12985907  0.0160083
   0.04106705]
 ...
 [ 0.00153511 -0.02315046  0.13394566 ...  0.02786923  0.05394826
   0.02707434]
 [-0.00221059  0.01601025  0.10254334 ... -0.01115185 -0.06000118
   0.10243893]
 [-0.07762766 -0.00453768  0.02659709 ...  0.10640951 -0.05632962
  -0.01692061]]
lstm_1/lstm_cell/bias:0
(400,)
[-1.09436616e-01 -1.04978785e-01 -9.54469293e-02 -1.13548025e-01
 -1.60472706e-01 -9.29428264e-02 -1.58729196e-01 -1.38420612e-03
 -1.24102324e-01 -8.76861885e-02 -1.35727748e-01 -1.01167113e-01
 -1.23021908e-01 -1.96516305e-01 -7.92432055e-02 -2.39212409e-01
 -3.60058360e-02 -9.21153277e-02 -1.00291021e-01 -2.21267417e-01
 -1.96740299e-01 -9.20626670e-02 -9.95686278e-02 -9.76554453e-02
 -5.06925844e-02 -1.40281633e-01 -1.10406533e-01 -1.90676883e-01
 -2.33267009e-01 -5.76088578e-02 -2.84835529e-02 -2.02439278e-01
 -1.15907922e-01 -1.06896497e-01 -1.05808750e-01 -1.40260115e-01
 -9.37186480e-02 -1.81268558e-01 -1.49856076e-01 -1.54049233e-01
 -3.84612679e-02 -1.88282818e-01 -7.97619298e-02 -3.25998589e-02
 -1.16773032e-01 -1.66624337e-01 -2.33206004e-01 -1.93910852e-01
 -1.08053185e-01 -3.54513377e-02 -1.19714946e-01 -1.15605555e-01
 -1.39892668e-01 -1.00482926e-01 -1.73499987e-01 -1.72985286e-01
 -1.12336047e-01 -6.67398348e-02 -9.66059566e-02 -1.30576417e-01
 -1.43453196e-01 -9.82528850e-02 -2.03032289e-02 -1.38146237e-01
 -1.98317960e-01 -1.57056645e-01 -1.81315914e-01 -3.22852433e-02
 -1.09328277e-01 -8.39492679e-02 -1.58206791e-01 -1.67014048e-01
 -2.11253300e-01 -6.97632208e-02 -9.92204621e-02 -3.57508883e-02
 -1.11492090e-01 -1.25232428e-01 -1.14339285e-01 -1.19030155e-01
 -1.85332969e-01 -6.32737726e-02 -7.03961551e-02 -5.76967746e-02
 -1.95567403e-03 -8.88584405e-02 -2.07510024e-01 -1.61653325e-01
 -1.05403736e-01 -6.98037595e-02 -9.17380378e-02 -2.39911154e-02
 -8.73160362e-02 -1.12926602e-01 -1.17318034e-01 -1.09276630e-01
 -2.40733802e-01 -4.50687855e-02 -1.48218095e-01 -1.96322769e-01
  9.62534070e-01  9.99603033e-01  9.65688765e-01  9.48090374e-01
  9.42556560e-01  9.92061555e-01  9.30518031e-01  1.07405567e+00
  9.74392354e-01  9.33394074e-01  9.78459895e-01  9.74550068e-01
  9.81168568e-01  9.50729012e-01  1.01118815e+00  9.21703458e-01
  9.52888191e-01  9.98274326e-01  9.98081863e-01  9.20362532e-01
  9.35414195e-01  1.00170195e+00  9.73648727e-01  9.77419734e-01
  1.01971674e+00  9.40443099e-01  9.34602678e-01  8.59041095e-01
  9.17804599e-01  1.03568864e+00  1.04905069e+00  8.98526549e-01
  9.75709498e-01  9.21875060e-01  9.83183205e-01  9.40727472e-01
  9.99451458e-01  8.93081784e-01  9.51537251e-01  9.19509888e-01
  1.04208136e+00  9.11841750e-01  1.00761247e+00  1.05341280e+00
  9.81959581e-01  9.42803085e-01  9.23692763e-01  9.11826134e-01
  9.90091443e-01  1.04131722e+00  9.81282890e-01  9.78770196e-01
  9.76740003e-01  9.71363842e-01  8.90921056e-01  9.31558371e-01
  9.53774452e-01  1.02694714e+00  9.93722558e-01  9.76233184e-01
  8.76260281e-01  9.81542766e-01  1.05232167e+00  9.67557669e-01
  9.52330351e-01  8.90082836e-01  9.41729248e-01  9.72403646e-01
  9.91779923e-01  9.97211933e-01  9.38007712e-01  9.61907327e-01
  9.13909733e-01  9.55955029e-01  9.98660445e-01  9.55920577e-01
  9.32752788e-01  9.84175384e-01  9.81700659e-01  9.79626000e-01
  9.41243827e-01  1.01277351e+00  1.01499379e+00  1.02552247e+00
  1.06125367e+00  9.98804510e-01  9.05177832e-01  9.62655902e-01
  9.86796916e-01  1.00537109e+00  9.94965136e-01  1.05741692e+00
  9.89045978e-01  9.31836188e-01  9.44133103e-01  9.67271864e-01
  8.65673721e-01  1.03619170e+00  9.45432723e-01  9.33549345e-01
  1.89382117e-03  5.73547615e-04  1.02891820e-02 -6.22890098e-03
  7.97274057e-04  5.77321334e-04  4.30597132e-03  6.18840614e-03
 -3.73473880e-03 -8.93380865e-03 -2.05014669e-03 -9.99854784e-03
 -2.81619863e-03 -5.60665876e-03  1.41769915e-03 -6.59545278e-03
  4.81994248e-05 -7.20144890e-04  1.35143602e-03 -2.06286344e-03
 -7.67837744e-04  2.39392882e-03  1.88444310e-03 -7.69402226e-03
 -1.76646688e-03  1.17970398e-03 -7.08735548e-03 -1.34671238e-04
  8.19146261e-03 -3.54736438e-03  7.99294387e-04 -1.24194892e-03
  9.58962541e-04  3.19081312e-03 -9.19176382e-04  3.19552119e-03
 -1.25379418e-03 -6.29828917e-03  1.99584616e-03 -1.67532801e-03
  3.80149856e-03 -3.58348619e-03  1.26827555e-03 -5.99321397e-03
  4.74724802e-04 -4.03750106e-04  5.72310411e-04 -3.63962288e-04
 -3.24827852e-04  7.93715194e-03 -3.91672511e-04 -5.86623512e-03
 -4.75777453e-03  2.41379673e-03  7.19925947e-03  1.44878589e-03
 -4.05082153e-03 -1.04756770e-03  1.28464506e-03 -4.36818833e-03
 -4.38671838e-03 -3.45644634e-03  2.87341955e-03  4.02819505e-03
  4.61462419e-03  7.35704135e-03 -1.18110690e-03 -7.83163216e-03
  3.49696726e-03 -2.88173673e-03  1.51165493e-03  5.84722147e-04
  6.37569511e-03  4.06770920e-03 -3.44087463e-03 -2.84516299e-03
 -8.46626516e-03  2.29500933e-04 -3.60004068e-03 -2.37685605e-03
  1.23924075e-03 -3.11411242e-03 -2.53735320e-03  2.12901575e-03
  4.29467484e-03 -3.34845623e-03  3.18697095e-03 -1.88680703e-03
  3.12371249e-03  1.81805459e-03  2.68142787e-03  2.50405842e-03
 -5.29644452e-03  3.35014251e-04  4.02684044e-03 -3.21190315e-03
 -9.65738110e-03 -2.02038931e-03  1.24384218e-03 -2.64199474e-03
 -1.10293455e-01 -1.02961570e-01 -9.68036950e-02 -1.14725456e-01
 -1.57556385e-01 -9.21266750e-02 -1.56914771e-01 -8.70057032e-04
 -1.22237392e-01 -9.01838914e-02 -1.33298695e-01 -1.01889126e-01
 -1.20528653e-01 -1.94017559e-01 -7.83813596e-02 -2.36512378e-01
 -3.67270932e-02 -9.23034102e-02 -9.80992988e-02 -2.15400651e-01
 -1.94593176e-01 -9.12772715e-02 -9.98670831e-02 -9.76898149e-02
 -5.00506386e-02 -1.39080212e-01 -1.11615539e-01 -1.87611669e-01
 -2.28066713e-01 -5.84162883e-02 -2.93449815e-02 -2.00375170e-01
 -1.14379279e-01 -1.06666885e-01 -1.03466913e-01 -1.39615327e-01
 -9.36548784e-02 -1.79494873e-01 -1.49131015e-01 -1.50745586e-01
 -3.77872624e-02 -1.86311737e-01 -7.94382617e-02 -3.51523086e-02
 -1.15753219e-01 -1.66856319e-01 -2.29432613e-01 -1.92311272e-01
 -1.09374940e-01 -3.54445092e-02 -1.17792137e-01 -1.15090720e-01
 -1.38724044e-01 -1.00197509e-01 -1.73385441e-01 -1.72066331e-01
 -1.13350436e-01 -6.60213456e-02 -9.65357125e-02 -1.29084647e-01
 -1.42671496e-01 -9.74129364e-02 -2.11597905e-02 -1.36250854e-01
 -1.95249081e-01 -1.53581217e-01 -1.79777995e-01 -3.38395983e-02
 -1.10424824e-01 -8.33237991e-02 -1.56596214e-01 -1.63287327e-01
 -2.09823489e-01 -7.05330446e-02 -9.94170755e-02 -3.78933512e-02
 -1.11047193e-01 -1.22797161e-01 -1.13084979e-01 -1.17703721e-01
 -1.82807669e-01 -6.40428960e-02 -7.05939457e-02 -5.73291108e-02
 -2.76232162e-03 -8.89180675e-02 -2.06754282e-01 -1.57109931e-01
 -1.04888864e-01 -6.94911703e-02 -9.03820097e-02 -2.36900393e-02
 -8.76837820e-02 -1.11800201e-01 -1.17549114e-01 -1.11537337e-01
 -2.36493960e-01 -4.48651500e-02 -1.47300974e-01 -1.95450157e-01]
dense/kernel:0
(100, 1)
[[ 0.07813162]
 [ 0.12538439]
 [-0.07076185]
 [-0.08111855]
 [-0.11762786]
 [-0.11516141]
 [-0.08574559]
 [-0.03500433]
 [-0.09326375]
 [-0.07429609]
 [-0.11869445]
 [ 0.07411704]
 [ 0.11563288]
 [ 0.14193778]
 [ 0.07888716]
 [-0.12815039]
 [ 0.06420711]
 [-0.08513303]
 [-0.09089883]
 [ 0.12610982]
 [ 0.10343332]
 [-0.08603833]
 [ 0.07234445]
 [ 0.07616495]
 [ 0.06946075]
 [-0.0845126 ]
 [-0.08641334]
 [ 0.11066662]
 [ 0.1339829 ]
 [ 0.05673591]
 [-0.05437782]
 [-0.12403104]
 [ 0.11509031]
 [ 0.0866241 ]
 [ 0.13394266]
 [ 0.08993392]
 [ 0.06601155]
 [-0.10329231]
 [-0.09976461]
 [ 0.08460136]
 [-0.05929331]
 [-0.10207214]
 [-0.07903288]
 [ 0.04826465]
 [-0.10939424]
 [ 0.0964226 ]
 [ 0.12154188]
 [-0.11417593]
 [-0.07640846]
 [-0.0344202 ]
 [ 0.14324288]
 [-0.08006872]
 [ 0.10823454]
 [ 0.08539969]
 [ 0.09733405]
 [ 0.11318445]
 [-0.07734742]
 [ 0.06364296]
 [-0.07470965]
 [ 0.12502033]
 [-0.09277354]
 [ 0.09155369]
 [-0.05157753]
 [ 0.08778848]
 [-0.1432641 ]
 [ 0.08874515]
 [ 0.12631766]
 [-0.0617272 ]
 [ 0.07618515]
 [ 0.08683024]
 [ 0.09653221]
 [-0.12025227]
 [ 0.11136456]
 [-0.0704226 ]
 [ 0.08978964]
 [-0.06061606]
 [-0.07839524]
 [-0.10360544]
 [ 0.137246  ]
 [ 0.10365465]
 [-0.12522286]
 [ 0.05720721]
 [ 0.06878725]
 [-0.07708333]
 [-0.03816317]
 [ 0.0765008 ]
 [ 0.11889961]
 [ 0.13144714]
 [-0.10064989]
 [-0.0744509 ]
 [-0.13336134]
 [-0.0506907 ]
 [ 0.07380415]
 [-0.07862096]
 [ 0.08265468]
 [-0.07411142]
 [-0.11783662]
 [ 0.06948077]
 [ 0.08239669]
 [ 0.12074422]]
dense/bias:0
(1,)
[0.49998263]
