lstm/lstm_cell/kernel:0
(12, 128)
[[ 0.15137164 -0.08134478 -0.08539308 ... -0.07168971  0.07068019
   0.12332235]
 [ 0.10190777  0.24535424  0.34214938 ...  0.3220096   0.25684792
   0.07689086]
 [ 0.08426163  0.2124234   0.24903382 ...  0.27766252  0.32619527
   0.08987106]
 ...
 [-0.08209809  0.167146   -0.00634179 ...  0.281134    0.19742393
  -0.04307512]
 [-0.16497022 -0.01446713  0.09030813 ...  0.12232078 -0.29031813
  -0.3528488 ]
 [-0.07619221  0.47876278  0.17800613 ...  0.4275923   0.10562568
   0.2630053 ]]
lstm/lstm_cell/recurrent_kernel:0
(32, 128)
[[-0.0910264  -0.01064005 -0.29669127 ... -0.28316772 -0.09835634
  -0.13627467]
 [-0.10029987 -0.21729521 -0.18680154 ... -0.3393309  -0.2745384
  -0.09991982]
 [-0.1546494  -0.2332521  -0.00290669 ... -0.07284222  0.02784401
  -0.2979432 ]
 ...
 [ 0.10820679  0.35749155  0.06314455 ...  0.07316054  0.11814495
   0.30722255]
 [ 0.10283028 -0.12162511 -0.11579815 ...  0.1207984  -0.12837555
  -0.21553712]
 [ 0.07920543 -0.01860166  0.2718812  ...  0.32055512  0.11029146
   0.06242836]]
lstm/lstm_cell/bias:0
(128,)
[ 5.06984890e-02  8.20521414e-02 -1.61465127e-02  5.19041270e-02
  5.99218756e-02  1.96381006e-02  1.04187705e-01 -2.23186761e-02
 -1.91128477e-02  7.22059682e-02  2.54428145e-02  1.38062522e-01
  1.01956017e-01  4.42452095e-02  3.01959552e-02  7.62507766e-02
  3.49876061e-02 -3.31744156e-03  5.54914139e-02  1.64101213e-01
  3.81796211e-02  2.08333045e-01  9.11609903e-02  8.66730809e-02
  7.89625496e-02  3.63352336e-02  6.91956803e-02  1.24577686e-01
  1.48044657e-02  1.94518030e-01  2.80840844e-02  8.20956975e-02
  9.54394042e-01  7.59711564e-01  8.15436184e-01  9.34656143e-01
  7.55747855e-01  8.33733678e-01  8.59691262e-01  9.48239625e-01
  9.44338083e-01  8.34933400e-01  8.50431502e-01  8.49815845e-01
  9.48128104e-01  7.57592380e-01  8.29795837e-01  8.03860188e-01
  8.53841543e-01  8.12909245e-01  9.95262623e-01  8.01098347e-01
  8.82999003e-01  8.53838623e-01  8.88412893e-01  8.98547411e-01
  8.88031244e-01  8.02463353e-01  8.91058922e-01  8.19303691e-01
  8.75393927e-01  6.80391729e-01  9.00613666e-01  8.14837754e-01
  1.59060284e-02  1.40059292e-01  2.21855462e-01 -3.94724011e-02
  1.21842936e-01  1.23254597e-01  2.19099835e-01  2.32097227e-02
  3.26476917e-02 -1.59586772e-01  1.79565564e-01 -2.23712027e-01
 -1.06035911e-01 -2.59784073e-01 -1.26078904e-01 -1.38184935e-01
 -1.47768304e-01  2.11173952e-01 -9.84657779e-02 -1.97590962e-01
  1.63793907e-01 -1.56054154e-01 -1.91619858e-01 -1.51970118e-01
  1.95257187e-01  1.49493352e-01  1.16949104e-01  2.69495577e-01
  1.54575989e-01 -3.41276556e-01  1.74480170e-01 -1.70011416e-01
  7.06968410e-03  3.50411311e-02 -6.21104799e-02  1.74283457e-04
  3.54593508e-02  1.29136946e-02  9.79497284e-02 -2.12923326e-02
 -1.94685403e-02  8.11807662e-02  1.85930654e-02  1.32003352e-01
  1.25359401e-01  6.70102984e-02  2.47160792e-02  7.74096772e-02
  3.54299694e-02  2.15020217e-02  4.73011434e-02  1.92371428e-01
  1.08393347e-02  2.00603515e-01  1.07564479e-01  8.59401301e-02
  1.00319140e-01  2.34882999e-02  1.00392774e-01  1.37510553e-01
  4.92457747e-02  1.86730251e-01  2.70223990e-02  7.44728893e-02]
lstm_1/lstm_cell/kernel:0
(32, 256)
[[-0.04869946  0.01244749 -0.17207244 ... -0.19363    -0.07827042
   0.05154898]
 [-0.3599854  -0.42397007 -0.51888627 ... -0.47448948 -0.22457239
  -0.42466155]
 [-0.09635708 -0.33748153  0.03856869 ... -0.17923008 -0.00493704
  -0.01734969]
 ...
 [ 0.13719955  0.13681267  0.24221447 ...  0.25113297  0.18650998
   0.07310969]
 [-0.07375789 -0.0989194   0.16688901 ... -0.00477015  0.22278938
  -0.15268871]
 [-0.01697078  0.14582254  0.05877348 ...  0.06366194 -0.05464726
   0.14404915]]
lstm_1/lstm_cell/recurrent_kernel:0
(64, 256)
[[-0.00847502  0.12038711  0.0684341  ...  0.00042111  0.04658442
  -0.01648241]
 [-0.03130498 -0.01708991 -0.14465636 ...  0.00142872 -0.05347936
  -0.02628613]
 [ 0.18184154  0.02227207 -0.00141728 ... -0.08422633 -0.10977245
   0.032195  ]
 ...
 [-0.08483505  0.05008922  0.07232215 ... -0.08464228  0.08926005
  -0.03985176]
 [-0.0740502   0.01821835  0.15099631 ...  0.08558244  0.00613709
   0.06913347]
 [-0.0409716  -0.03765678  0.02603962 ...  0.03336837  0.01251488
   0.04700976]]
lstm_1/lstm_cell/bias:0
(256,)
[ 2.41756476e-02  9.60052758e-02  1.22875839e-01  6.02683425e-02
  9.96685922e-02 -4.09318460e-03  4.91623580e-02  5.23753390e-02
  6.45945370e-02  5.88814355e-02  1.40184090e-01  1.19468883e-01
  5.66383600e-02  4.11679000e-02  2.46882923e-02  1.49059474e-01
  5.78824654e-02  7.86263421e-02 -8.01567640e-03  1.18666470e-01
  9.96632501e-02  1.47695974e-01  4.66903262e-02  2.04968691e-01
  5.79067394e-02  9.72218588e-02  6.19199388e-02  9.84577611e-02
  2.22277552e-01  1.65845722e-01  1.00135982e-01  8.61270428e-02
  4.46727499e-02  1.68711424e-01  3.13727148e-02  1.16234615e-01
  6.45022169e-02  4.36303541e-02  6.89677894e-02  1.07146218e-01
  5.50314188e-02  4.80443127e-02  1.76909640e-01  4.80898544e-02
  1.17776804e-01  1.58277497e-01  7.53339455e-02  3.87650579e-02
  4.13540863e-02  7.23159015e-02  8.85534286e-02  9.68732610e-02
  1.49558663e-01  1.17383383e-01  9.37085152e-02  5.37198074e-02
  7.88996071e-02  9.52579379e-02  7.03814551e-02  2.80662440e-02
  8.24595541e-02  3.94639336e-02  9.19689089e-02  6.69790208e-02
  8.37479174e-01  7.90159285e-01  7.71027982e-01  9.58935499e-01
  8.13043356e-01  9.29885805e-01  9.13463831e-01  9.08227384e-01
  8.18554342e-01  8.82269502e-01  7.77550936e-01  7.54689574e-01
  9.10164356e-01  8.98337185e-01  8.99315715e-01  8.24435055e-01
  8.72721016e-01  9.15968060e-01  9.52538252e-01  8.79449069e-01
  8.10494721e-01  8.32900584e-01  9.30219889e-01  7.22082913e-01
  8.97291780e-01  8.67144763e-01  9.09988999e-01  9.26122308e-01
  7.89958954e-01  7.82641947e-01  9.16959405e-01  8.11437130e-01
  9.32641625e-01  7.58029699e-01  8.82902324e-01  7.48179078e-01
  8.07145178e-01  8.52203488e-01  9.08225238e-01  8.62444818e-01
  8.51406991e-01  9.16532397e-01  8.22118640e-01  8.75830472e-01
  8.29211652e-01  6.80829287e-01  8.82504046e-01  9.12307560e-01
  8.62757325e-01  7.00669587e-01  8.25329006e-01  8.59928966e-01
  7.98216879e-01  8.27422023e-01  8.89613628e-01  8.35852683e-01
  8.84283721e-01  7.01624334e-01  9.06030059e-01  8.94217491e-01
  8.34310830e-01  8.60502243e-01  8.95850658e-01  9.10476327e-01
 -3.65245827e-02  3.19013074e-02 -4.94367145e-02 -2.55433396e-02
 -3.96568067e-02  4.70587723e-02 -4.01594080e-02 -3.16345319e-02
 -2.17920449e-03 -3.08310594e-02  6.54061586e-02  5.24968915e-02
  2.75231078e-02  3.48986313e-02 -3.88870798e-02  3.11780442e-02
  4.74677607e-02  3.25044431e-02  2.44152639e-02 -2.32142918e-02
 -4.82994355e-02  3.52347828e-02 -3.00114807e-02 -3.48736197e-02
  3.92201133e-02  4.86155674e-02  3.22071686e-02  3.97530235e-02
 -5.56912646e-03  5.28603978e-03  4.63092364e-02 -5.82774505e-02
  3.86289060e-02  3.83542366e-02  5.86633906e-02  8.01626593e-03
  3.39537151e-02  4.64030206e-02  2.79164836e-02  6.10710606e-02
 -5.38252927e-02 -5.10138534e-02  2.20962480e-04  5.13653755e-02
  2.01622006e-02 -3.23649438e-04  5.04910983e-02 -5.62212430e-02
  5.42847440e-02 -7.89689645e-02  5.89633808e-02 -5.65172546e-03
 -1.87970251e-02  9.04141180e-03  2.17340887e-02 -4.81158122e-02
  5.00873178e-02 -5.80720119e-02  3.40084583e-02  3.61797512e-02
 -5.59913814e-02  5.63020259e-02  2.99542043e-02 -3.09087895e-02
  3.69939953e-02  9.26944092e-02  1.09719507e-01  6.24763891e-02
  8.75831470e-02  5.92725410e-04  4.74643447e-02  4.51678932e-02
  7.20419288e-02  5.45737371e-02  1.39705017e-01  1.13830388e-01
  5.06386980e-02  4.19868231e-02  1.36746848e-02  1.43483832e-01
  5.74008413e-02  7.00407028e-02 -6.45656604e-03  1.10362574e-01
  9.41971615e-02  1.46172345e-01  4.53373753e-02  2.30204701e-01
  6.85045645e-02  9.42159370e-02  5.45049533e-02  9.76750851e-02
  2.16412216e-01  1.95367754e-01  7.08164871e-02  9.51350927e-02
  4.46267910e-02  1.64860934e-01  3.90250906e-02  1.04945198e-01
  7.44137913e-02  5.14629632e-02  6.80522099e-02  1.13874875e-01
  4.54446226e-02  4.81413901e-02  1.87933326e-01  3.50912996e-02
  1.10973179e-01  1.55193865e-01  6.61354661e-02  3.64846997e-02
  3.81065793e-02  6.83809221e-02  7.44424835e-02  8.83100331e-02
  1.53725505e-01  1.30887002e-01  8.72073174e-02  4.87394221e-02
  8.87506753e-02  9.22658369e-02  7.39553943e-02  2.36184057e-02
  8.11294988e-02  3.97606157e-02  8.64512399e-02  5.62313013e-02]
lstm_2/lstm_cell/kernel:0
(64, 512)
[[ 0.11258009 -0.05529749  0.0688875  ...  0.0029943  -0.02834536
   0.09410216]
 [-0.2285497   0.04690548 -0.20281333 ... -0.05920115 -0.06233392
  -0.21660642]
 [ 0.03694572  0.01189615  0.10705019 ... -0.06493822 -0.07536108
   0.12179685]
 ...
 [-0.03713289  0.04030789 -0.06442562 ... -0.05680039 -0.06871377
  -0.03185686]
 [ 0.06418148  0.13427383  0.14192599 ...  0.21117574  0.04827293
   0.01027702]
 [ 0.18900806 -0.06621734  0.12271115 ...  0.06326061  0.04284658
   0.07041451]]
lstm_2/lstm_cell/recurrent_kernel:0
(128, 512)
[[-0.0018309  -0.00858351  0.00535573 ...  0.02038917  0.06194969
   0.01951872]
 [-0.01798731 -0.00984494 -0.00116464 ...  0.01591505  0.03908955
   0.04625941]
 [-0.01590625  0.11412995 -0.02811627 ...  0.01902704  0.00895797
  -0.00468394]
 ...
 [-0.0289644  -0.0361376   0.02941771 ... -0.08666776 -0.01577548
   0.02050571]
 [-0.00015647 -0.07605492  0.01563473 ... -0.02273432  0.03717557
  -0.02885865]
 [-0.01972723  0.1331588  -0.04656822 ...  0.10637254  0.01407961
  -0.03008416]]
lstm_2/lstm_cell/bias:0
(512,)
[ 7.01074582e-03  4.53613512e-02  6.26534410e-03 -1.37364725e-02
  2.82145012e-02  5.12206294e-02  2.18826104e-02 -1.09569225e-02
  3.20043974e-02  4.89370115e-02  2.58967001e-02  4.75423299e-02
  1.20232766e-03  9.71811265e-02 -1.26740849e-02 -1.01651279e-02
 -8.88948608e-03  4.52399030e-02  1.03439074e-02 -3.79676640e-04
  5.68495095e-02  6.05955832e-02  1.21151907e-02  4.24863584e-02
  5.86170852e-02 -2.21677087e-02  2.08192226e-02  9.80907381e-02
  8.98026489e-03  4.25459482e-02  7.30412304e-02  3.47945355e-02
  3.39323282e-02  1.11145966e-01  6.58005625e-02  6.70076311e-02
  1.17565639e-01  2.91241263e-03  2.50218734e-02  4.99258786e-02
  4.29272428e-02  7.21876249e-02  1.73792355e-02  1.44690182e-02
  1.72018111e-02 -7.26775005e-02  6.23510554e-02  3.15189548e-03
  1.89149193e-02  1.83599424e-02  2.13402826e-02 -2.64038797e-02
  6.04131930e-02  5.17244404e-03 -2.37422362e-02  2.25936924e-03
  1.74400974e-02 -7.29341572e-03  4.51266989e-02  3.90498526e-02
  6.85454309e-02  6.17670529e-02  5.53339161e-02  9.31220874e-02
  6.03879951e-02 -4.41975426e-03  2.23804582e-02 -1.89548209e-02
  3.71833444e-02  9.49779600e-02  1.32830981e-02  5.57165928e-02
  1.91354454e-02  1.62329506e-02  5.79547286e-02  4.97850738e-02
  1.18993176e-02 -4.08532051e-03  1.82942161e-03  3.74285989e-02
  8.67855549e-03  1.53035969e-02  7.96196703e-03  2.18671802e-02
  1.10727996e-01  8.19850937e-02 -1.00917183e-02  4.57992181e-02
  7.35183880e-02  4.19763057e-03  1.45387352e-02  1.16813499e-02
  4.25393246e-02  4.96296817e-03  2.66535077e-02  4.95147370e-02
 -3.20668076e-03 -3.69168282e-03  7.67276138e-02  1.33693088e-02
 -8.59096646e-03 -1.70660503e-02  1.64343882e-02  5.84946871e-02
  1.83966737e-02  3.98294360e-04  3.83003280e-02  7.63679808e-03
 -4.33396176e-03 -3.18057276e-03  6.37734756e-02  1.07658282e-02
  6.97539886e-04  4.48829867e-02  3.73522937e-02  1.63031800e-03
  4.74759527e-02 -8.72505270e-03  4.72877622e-02  2.40515899e-02
  1.06101269e-02  6.21485114e-02 -4.27824929e-02  2.04127822e-02
  2.63211820e-02  2.29444765e-02  1.56923037e-04 -3.21839787e-02
  9.10652220e-01  8.91626358e-01  9.38456178e-01  9.30044830e-01
  9.28897798e-01  9.26046193e-01  8.63146961e-01  9.77276802e-01
  9.51657116e-01  8.85428786e-01  9.25543725e-01  8.42990100e-01
  9.80084777e-01  8.80533159e-01  9.23965096e-01  9.14979100e-01
  9.19921517e-01  8.57695699e-01  9.19086397e-01  9.07229304e-01
  8.70881796e-01  8.32228303e-01  9.10080731e-01  8.18761766e-01
  8.62029016e-01  9.49642539e-01  9.20177698e-01  9.08425033e-01
  9.31991041e-01  8.95006478e-01  8.18302631e-01  8.22436392e-01
  9.03953314e-01  7.54518807e-01  8.83909822e-01  9.01239097e-01
  9.91161287e-01  8.29439700e-01  8.34329605e-01  9.14711356e-01
  8.66325915e-01  8.59109521e-01  9.64365721e-01  9.11155045e-01
  9.19272542e-01  9.16532636e-01  1.00759876e+00  8.72727394e-01
  9.55775797e-01  9.22473013e-01  9.14287329e-01  9.02626634e-01
  8.86842430e-01  8.91836584e-01  9.01313305e-01  8.66667092e-01
  9.25912440e-01  9.27489758e-01  8.01009953e-01  8.71470749e-01
  9.39832509e-01  8.47583354e-01  8.80259097e-01  1.00985372e+00
  8.70495439e-01  8.57869864e-01  9.04177248e-01  8.88431668e-01
  8.52701068e-01  8.44873309e-01  9.28431511e-01  8.66515934e-01
  8.94505799e-01  9.67508733e-01  8.72205853e-01  8.27813804e-01
  8.37528467e-01  9.03658628e-01  9.00334239e-01  9.20289278e-01
  8.92534554e-01  8.93435776e-01  9.15928006e-01  9.20332313e-01
  8.08611095e-01  7.91424870e-01  9.58016515e-01  8.21083486e-01
  7.96798110e-01  9.73164320e-01  8.84976745e-01  9.13268507e-01
  8.86717498e-01  9.15804803e-01  8.08167040e-01  8.61492753e-01
  8.95020127e-01  9.39367294e-01  8.78985047e-01  9.15555179e-01
  9.36444819e-01  8.90813649e-01  9.88374233e-01  1.00115061e+00
  8.69264901e-01  9.09983933e-01  8.15671265e-01  9.18281257e-01
  9.86058295e-01  9.84580338e-01  8.93803060e-01  9.11343992e-01
  9.03622329e-01  9.30571079e-01  8.01464796e-01  9.52212036e-01
  8.54860961e-01  8.52444708e-01  9.14798498e-01  9.30207670e-01
  9.15208638e-01  8.20924938e-01  9.42752540e-01  8.56232703e-01
  8.94303262e-01  8.74041855e-01  9.06881452e-01  9.84149396e-01
 -6.93252450e-03 -1.94732454e-02 -2.01682448e-02 -4.57815942e-04
 -1.82260312e-02  1.76972598e-02 -1.16431685e-02 -1.38624001e-03
 -2.47260965e-02 -1.48765091e-02 -1.04482798e-02  3.38462032e-02
 -1.74037442e-02 -3.54464948e-02 -3.71888988e-02 -1.80451069e-02
 -1.46714319e-02 -7.30160298e-03 -2.06654202e-02  1.75599661e-02
 -2.23717205e-02  5.11648282e-02  1.32459523e-02 -1.92132667e-02
 -3.56562696e-02  2.31289193e-02 -1.45054813e-02  6.69514434e-03
  2.10165530e-02  2.58734310e-03 -1.26043111e-02 -6.84901280e-03
  1.35423220e-03  4.04164381e-02  1.53087005e-02  7.98206031e-03
 -6.74528927e-02  2.68717185e-02  6.62079256e-04  7.32690096e-03
  7.93847162e-03 -4.13517617e-02  9.78403166e-03 -3.67261656e-03
 -3.67864064e-04  1.84816644e-02 -3.24718691e-02  5.48159098e-03
  1.50844194e-02  5.61756408e-03  3.88790108e-03 -7.38529116e-03
  7.65704596e-03 -2.75760656e-03  1.97109412e-02 -5.87319443e-03
 -1.81645807e-02 -4.90261149e-03 -4.98745125e-03 -5.14628133e-03
  1.00541823e-02 -1.49823260e-02  8.68837815e-03 -1.96943898e-02
 -3.70339630e-03 -3.67732793e-02 -1.21261664e-02 -4.29673046e-02
  1.23167364e-02 -1.30300093e-02 -1.25252940e-02 -3.72013613e-03
 -1.72163849e-03 -5.96015714e-03  1.61941145e-02 -2.94605121e-02
  1.20148454e-02  4.69234888e-04 -1.61066768e-03 -6.66166714e-04
  3.64819989e-02 -1.38746807e-02 -1.33427605e-02  2.12268159e-02
  2.52947137e-02 -9.56997089e-03 -2.27870997e-02  8.05951934e-03
 -2.19998555e-03  1.38721764e-02 -3.26414518e-02 -8.25959723e-03
  2.18519084e-02  6.53783698e-03  1.81906521e-02 -1.14587527e-02
 -1.01059685e-02 -1.62963849e-02  6.60824729e-03 -9.47097223e-03
 -2.26165373e-02 -2.08045319e-02 -4.07669693e-02  2.73601133e-02
 -2.27578674e-02 -1.13847777e-02  2.74422634e-02  4.08825576e-02
  2.78114900e-02 -2.67503466e-02  4.44771983e-02  4.23173793e-03
  1.50382267e-02  2.92970147e-03  1.48460492e-02 -1.66652631e-02
  1.02719450e-02 -9.47063696e-03  9.73292277e-04  8.47799052e-03
  2.17774883e-02  1.03759021e-02  3.42497341e-02  1.27902795e-02
  8.79494101e-03 -1.20550627e-03  1.82959833e-03 -3.02878898e-02
  5.93345240e-03  4.35614809e-02  1.01328385e-03 -1.28965871e-02
  2.58842949e-02  5.66513874e-02  1.39994798e-02 -5.58730820e-03
  3.03422324e-02  4.93853465e-02  2.39117146e-02  6.03082553e-02
  2.00479594e-03  9.47989300e-02 -1.21788858e-02 -1.75922401e-02
 -1.68550722e-02  4.40284014e-02  6.35817042e-03 -1.25619434e-02
  4.77547273e-02  6.27273396e-02  3.55000491e-03  2.24014111e-02
  5.91491573e-02 -1.73183512e-02  2.31216159e-02  9.83313695e-02
  3.05848662e-03  4.13405299e-02  7.18300790e-02  2.78706178e-02
  3.60781737e-02  1.02758758e-01  5.58804162e-02  6.41605854e-02
  1.14487052e-01 -7.95227382e-03  1.79910548e-02  5.61688133e-02
  3.91033664e-02  7.78502747e-02  1.94523949e-02  1.28916046e-02
  8.45563598e-03 -7.11197183e-02  5.13606481e-02 -4.13051480e-03
  2.28585023e-02  8.11204128e-03  1.72116328e-02 -2.74196882e-02
  5.70031293e-02  4.66265902e-03 -2.84128357e-02 -5.03083924e-03
  1.09880529e-02 -4.48154332e-03  5.14189415e-02  2.51717921e-02
  6.65803775e-02  6.34784326e-02  5.10307178e-02  8.28846619e-02
  6.38630390e-02 -5.78767108e-03  2.57283058e-02 -2.07165368e-02
  3.71859670e-02  7.87154883e-02  1.12140626e-02  5.96664213e-02
  1.32746790e-02  1.96496770e-02  5.23127876e-02  3.96481827e-02
  4.53296164e-03  1.35210424e-03 -1.00062490e-02  3.77909094e-02
  6.49647275e-03  1.14204623e-02  3.11436807e-03  2.66806260e-02
  1.09841898e-01  7.97869414e-02 -1.63565148e-02  4.26353849e-02
  6.32838756e-02  7.89796747e-03  1.93285067e-02  8.54849257e-03
  4.78693172e-02 -3.75286746e-03  2.48896684e-02  4.88247499e-02
 -3.90465278e-03 -5.44997072e-03  7.18970969e-02  7.06485473e-03
 -1.36830201e-02 -2.38399506e-02  1.20787760e-02  5.29702194e-02
  1.64754856e-02  5.22282161e-03  5.59440069e-02  5.39592979e-03
 -3.11637484e-03 -6.78016013e-03  6.68283626e-02  1.10554965e-02
 -2.87059369e-03  3.77053544e-02  3.58307809e-02 -5.42957219e-04
  4.91242073e-02 -2.35429611e-02  4.43356745e-02  1.67006887e-02
  2.12075375e-02  6.14817403e-02 -2.45742798e-02  1.95873939e-02
  2.49833241e-02  2.08872780e-02 -1.33258407e-03 -3.09201907e-02]
lstm_3/lstm_cell/kernel:0
(128, 1024)
[[-3.08903847e-02  1.11854956e-01  3.38847414e-02 ...  1.10136129e-01
   1.33320943e-01  4.44866344e-02]
 [-6.26988783e-02  3.57679129e-02 -3.19362693e-02 ... -1.86827276e-02
   4.32465458e-03  4.35320884e-02]
 [ 3.83390523e-02  9.48960055e-03  6.51899874e-02 ...  5.64949214e-02
  -5.47722587e-03  3.45817432e-02]
 ...
 [ 7.93577358e-02  4.77684848e-02 -6.07453994e-02 ...  2.18267422e-02
  -3.90417129e-02 -6.14462234e-02]
 [ 9.58633237e-03 -5.37836971e-03  6.62357956e-02 ... -5.69262132e-02
  -5.56080937e-02 -6.45409822e-02]
 [ 3.29160690e-02  4.52380031e-02  1.82718097e-04 ... -4.75300330e-05
   6.27386644e-02  5.97406812e-02]]
lstm_3/lstm_cell/recurrent_kernel:0
(256, 1024)
[[-0.02950697 -0.05562104 -0.15603392 ... -0.07343195 -0.07424094
  -0.04120864]
 [-0.06088021 -0.04693887  0.04008256 ...  0.05325518  0.00472256
  -0.01583717]
 [-0.03866227 -0.00640676 -0.04819983 ... -0.05689263  0.0022006
  -0.00605719]
 ...
 [ 0.05009161 -0.05749129 -0.04905194 ... -0.02434314 -0.04845032
   0.0446595 ]
 [ 0.0611826   0.00778604 -0.03659238 ... -0.05449872 -0.04200602
   0.01731138]
 [ 0.05214163 -0.05088551 -0.04132175 ... -0.06484823  0.01325051
  -0.02249788]]
lstm_3/lstm_cell/bias:0
(1024,)
[ 0.01131385 -0.01204092 -0.00993697 ... -0.01907411 -0.0038734
 -0.03102024]
lstm_4/lstm_cell/kernel:0
(256, 512)
[[-0.19198534 -0.1045011  -0.05145681 ... -0.04096631 -0.08805694
  -0.12253582]
 [ 0.06695217 -0.08584566 -0.07011212 ... -0.00472197 -0.05715815
   0.11296453]
 [-0.16501299 -0.10942917 -0.16587962 ... -0.12112299 -0.02930534
  -0.23567933]
 ...
 [ 0.01568048 -0.08995698 -0.13311993 ... -0.10276417 -0.01321731
  -0.02011122]
 [ 0.00215289 -0.07045019 -0.03836199 ... -0.02481172  0.02245213
  -0.10996909]
 [ 0.08919331 -0.07667759  0.02499978 ...  0.06999291 -0.06067115
  -0.11143909]]
lstm_4/lstm_cell/recurrent_kernel:0
(128, 512)
[[ 0.08097258  0.02383003 -0.03666193 ...  0.09547005 -0.05212922
   0.15478298]
 [ 0.03000558 -0.02217572  0.06378742 ... -0.07401343  0.10587662
  -0.08855966]
 [ 0.121703    0.17028235 -0.02717634 ...  0.05654145  0.01252992
   0.1587875 ]
 ...
 [ 0.02510706  0.0385855  -0.13269742 ...  0.07846861  0.0405453
   0.04177454]
 [-0.05237645 -0.11268421 -0.00243485 ... -0.01767358 -0.08258271
  -0.14341803]
 [ 0.06905045  0.05045232  0.03465788 ...  0.06247934  0.02847397
   0.13171265]]
lstm_4/lstm_cell/bias:0
(512,)
[-1.75233018e-02 -3.27817015e-02 -2.07712613e-02 -8.77554342e-02
 -8.79022852e-02 -7.87550136e-02 -7.63422325e-02 -4.70752716e-02
 -6.81800097e-02 -6.46736994e-02 -3.87287512e-02 -2.58673150e-02
 -3.38766351e-02 -5.60902208e-02 -6.43640906e-02 -6.86362460e-02
 -9.30925906e-02 -2.91745737e-02 -8.73372890e-03 -5.94156869e-02
 -8.65440965e-02 -3.96304093e-02 -3.56073342e-02 -7.00835809e-02
 -5.89079559e-02 -6.42545596e-02 -3.24735120e-02 -1.03250422e-01
 -1.01527035e-01 -5.74795865e-02 -7.00906590e-02 -5.04814386e-02
 -5.28736115e-02 -7.22891018e-02 -5.89677133e-02 -3.53763662e-02
 -2.88803615e-02 -3.70064303e-02 -5.12095308e-03 -7.25307316e-02
 -7.89372697e-02 -3.65097299e-02 -6.82570636e-02 -6.17675520e-02
 -4.54693586e-02 -6.20219000e-02 -3.52620683e-03 -4.52709571e-02
 -6.76388219e-02 -3.38677652e-02 -6.32115304e-02 -7.45756477e-02
 -1.26056552e-01 -1.15531065e-01 -8.45651031e-02 -3.31818312e-02
 -4.50917222e-02 -3.80515144e-03 -5.98018281e-02 -2.62745935e-02
 -5.29366247e-02 -1.07752115e-01 -7.18209371e-02 -2.06899457e-02
 -2.67680157e-02  2.74990685e-02 -7.39333704e-02 -3.73603702e-02
 -4.67455126e-02 -3.83580220e-03 -3.83188911e-02 -6.58521503e-02
 -2.91498154e-02 -6.50412440e-02 -4.74495366e-02 -2.94929631e-02
 -2.46823300e-02 -3.59439887e-02 -5.02095744e-02 -5.47557883e-02
 -6.33228198e-02 -2.67059840e-02 -9.74231511e-02 -3.79207954e-02
 -5.34473322e-02 -4.51360419e-02 -2.93708090e-02 -2.76879445e-02
 -6.87385723e-02  1.29911061e-02  1.93835758e-02 -8.50300118e-03
 -2.40952689e-02 -1.13982052e-01 -6.42448664e-02 -5.62308840e-02
 -2.08684839e-02 -8.73708054e-02 -3.26149613e-02 -5.68655021e-02
 -4.52001616e-02 -5.92261292e-02 -4.67801094e-02 -6.10853359e-02
 -7.02213347e-02 -6.02425225e-02 -4.83073704e-02 -9.53367054e-02
 -7.67594948e-02 -5.95723577e-02 -8.08584914e-02 -1.05427645e-01
 -3.23309079e-02  3.99468988e-02 -1.35903105e-01 -6.69183582e-02
  4.49254513e-02 -8.34208652e-02 -8.08588415e-02 -5.09761423e-02
 -6.11679479e-02 -5.33347316e-02 -3.64062712e-02 -4.08993438e-02
 -5.69478981e-02 -7.32478052e-02 -1.13496698e-01 -1.42709315e-02
  8.87784421e-01  9.08849716e-01  8.79242480e-01  9.16977465e-01
  9.00991023e-01  9.28172886e-01  8.99773240e-01  9.54309881e-01
  8.98607552e-01  8.93667519e-01  9.28545475e-01  9.03643370e-01
  9.30576861e-01  9.23178554e-01  9.08431649e-01  9.31498706e-01
  9.65093255e-01  8.88563633e-01  1.09625494e+00  9.16867793e-01
  9.44761932e-01  9.08914268e-01  8.64168644e-01  9.56550121e-01
  9.01304901e-01  8.96809995e-01  9.12068069e-01  8.23127031e-01
  9.45019364e-01  8.92192185e-01  9.77089882e-01  9.20899868e-01
  8.87352407e-01  9.46101308e-01  8.50706458e-01  9.02829707e-01
  9.15323436e-01  8.87032866e-01  8.82857621e-01  9.17302132e-01
  9.53064501e-01  8.72138619e-01  8.78186584e-01  9.10610139e-01
  9.06066597e-01  9.42079663e-01  8.17594826e-01  9.05878544e-01
  8.52804124e-01  9.53954279e-01  9.35995817e-01  9.27355528e-01
  9.01929379e-01  9.77777183e-01  9.21641409e-01  8.74669850e-01
  8.14426363e-01  8.73320401e-01  9.43704605e-01  8.66987467e-01
  9.35462713e-01  9.30550456e-01  8.55592012e-01  9.57117319e-01
  8.93289149e-01  9.16759074e-01  9.15218115e-01  9.56640720e-01
  9.40945566e-01  9.24382567e-01  8.93964052e-01  8.86211812e-01
  9.16809738e-01  8.80753279e-01  9.43695188e-01  8.89268100e-01
  8.97987545e-01  8.44400644e-01  9.15765703e-01  8.69424880e-01
  9.30949926e-01  8.20186198e-01  8.89021695e-01  9.49272037e-01
  9.73275781e-01  7.78419852e-01  9.18911934e-01  9.13796425e-01
  8.72691512e-01  9.28898215e-01  8.78321290e-01  8.85335207e-01
  9.29395497e-01  7.88693190e-01  9.22639608e-01  9.66946483e-01
  8.77294004e-01  9.89575326e-01  8.60800624e-01  9.70530033e-01
  9.06521380e-01  8.92329931e-01  9.09705043e-01  9.28105533e-01
  8.63556802e-01  9.18448269e-01  9.00954604e-01  8.40425849e-01
  9.53658402e-01  9.22208130e-01  9.27603006e-01  9.97527897e-01
  9.31422293e-01  7.32999206e-01  9.40611780e-01  8.92101169e-01
  7.76832223e-01  9.24836576e-01  9.99164462e-01  8.70590448e-01
  9.38926518e-01  8.95753622e-01  8.62886012e-01  9.91558135e-01
  9.30074275e-01  9.37533617e-01  9.07748342e-01  8.98525476e-01
  2.95263547e-02 -2.01345310e-02 -4.62357700e-03 -9.78046004e-03
 -3.13684195e-02 -3.41457427e-02  2.15124376e-02 -1.52813485e-02
  1.89087875e-02  4.72878888e-02  8.58885199e-02  3.02937981e-02
 -3.99794690e-02 -2.55299509e-02  3.25754844e-02  4.17261943e-02
  2.56554857e-02  2.60110404e-02 -7.36004487e-03  2.43614372e-02
  2.29160022e-03  3.40056531e-02 -2.00143140e-02  2.84086745e-02
  3.97450253e-02  5.35055287e-02 -4.21670415e-02  1.31098628e-02
 -9.18610953e-03 -1.73100140e-02  1.77585185e-02  5.97453602e-02
  2.07762513e-02 -3.33912484e-02 -5.81571646e-02 -2.23145559e-02
 -3.34112868e-02 -4.22566794e-02  5.93153276e-02  2.77658962e-02
 -4.69074287e-02  6.12047836e-02  2.89869495e-02  6.10292070e-02
 -2.80965641e-02  1.45641332e-02 -2.04386767e-02  2.99898703e-02
 -4.89942310e-03  4.89520244e-02 -3.37755904e-02 -3.50900926e-03
  2.64512990e-02  3.25188972e-02  2.57063471e-02 -7.11692944e-02
 -4.53850031e-02  6.14838153e-02 -2.99698897e-02 -6.03729114e-02
 -4.55887467e-02  6.51881099e-03  3.60815562e-02 -1.04546333e-02
  4.17996719e-02  2.38685217e-02 -1.70126669e-02 -5.38027287e-02
 -1.40512595e-02  6.73443824e-02  2.97235530e-02 -1.30962497e-02
  3.34541574e-02 -2.60262303e-02 -3.55090946e-02  1.90367382e-02
 -3.26143280e-02  4.84206267e-02 -3.73405330e-02 -2.41023093e-03
  2.65366677e-02  9.04941652e-03  2.08728407e-02  3.35173830e-02
  1.45058511e-02  6.94967136e-02  4.06217501e-02  5.24293371e-02
  3.84881571e-02 -9.76621080e-03 -1.08400755e-01  4.42783721e-02
 -3.11267618e-02 -3.71436551e-02 -3.93409096e-02 -2.40406711e-02
 -3.09879575e-02 -1.55574729e-04  1.81984026e-02  4.90915142e-02
  2.41652764e-02  3.20609510e-02  3.07007544e-02 -4.30416726e-02
 -2.13403422e-02  1.95545107e-02  3.61401066e-02 -1.10565277e-04
  3.66387740e-02 -1.07498523e-02 -3.55285816e-02  4.59391549e-02
  3.12586576e-02  5.15309460e-02 -4.48710285e-03 -6.48313984e-02
 -4.08762693e-02 -3.61726396e-02 -3.15630622e-02  5.95366806e-02
 -2.08982117e-02  2.25988999e-02  2.12207008e-02 -7.70883495e-03
 -3.38015780e-02  3.05359047e-02  3.51670198e-03  3.39074284e-02
  1.47340149e-02 -1.96886193e-02 -1.72413345e-02 -7.16716871e-02
 -3.99623029e-02 -5.26176840e-02 -6.10958338e-02 -5.16748093e-02
 -5.06191775e-02 -4.92283404e-02 -4.42720801e-02 -1.48231965e-02
 -1.07538970e-02 -3.24926078e-02 -4.66711819e-02 -4.14695852e-02
 -9.64004621e-02 -2.87619941e-02  2.86805462e-02 -3.68407294e-02
 -8.41859877e-02 -8.99646897e-04 -3.06821186e-02 -4.30246331e-02
 -4.23985124e-02 -2.95392647e-02  1.62094762e-03 -9.42104459e-02
 -9.98123139e-02 -5.18123321e-02 -6.00482933e-02 -5.04086316e-02
 -2.20380928e-02 -6.17890805e-02 -3.56366374e-02 -9.43507068e-03
 -1.18576540e-02 -1.83724053e-02  1.61449667e-02 -5.59071302e-02
 -5.33673689e-02 -9.34659224e-03 -3.87857668e-02 -7.67927170e-02
 -2.78773364e-02 -4.72054034e-02  1.98943866e-03 -2.18820572e-02
 -6.50525615e-02 -1.28582092e-02 -3.62854637e-02 -7.04763904e-02
 -1.16947465e-01 -9.98357162e-02 -7.61831477e-02 -1.11463238e-02
 -2.34558489e-02  6.72829663e-03 -2.85359491e-02 -1.67607684e-02
 -2.73307934e-02 -1.08463496e-01 -5.74222393e-02 -1.55316480e-02
 -1.26238028e-02  1.70336310e-02 -4.51679006e-02 -1.54754752e-02
 -3.06113623e-02  3.22710164e-02 -1.21821761e-02 -4.28264327e-02
 -1.09040365e-03 -4.84987907e-02 -2.79399678e-02 -2.61129234e-02
 -1.00582018e-02  1.09096654e-02 -1.85975600e-02 -6.20352514e-02
 -3.31719220e-02 -1.09900115e-02 -1.01009421e-01 -4.34259363e-02
 -2.87214853e-02 -1.12547381e-02 -1.79295801e-02 -7.42814550e-03
 -5.17644137e-02  1.62290689e-03 -3.06147616e-03  8.91747419e-03
  1.39573598e-02 -1.02541417e-01 -4.24296893e-02 -4.76153828e-02
 -5.92584163e-03 -3.15745473e-02 -1.21773956e-02 -3.12538594e-02
 -2.26392560e-02 -3.35471071e-02 -3.51948664e-02 -4.67465706e-02
 -6.20275140e-02 -5.51886410e-02 -2.64628120e-02 -8.23771581e-02
 -7.79686123e-02 -4.58009206e-02 -4.53327894e-02 -7.00370073e-02
 -2.15246417e-02  4.49936315e-02 -1.33225441e-01 -8.46161842e-02
  5.58679774e-02 -7.92685375e-02 -8.19818377e-02 -2.66816411e-02
 -4.10794802e-02 -4.99625206e-02 -2.43375767e-02 -3.23448852e-02
 -2.65760478e-02 -6.88797608e-02 -9.53281894e-02  5.63440751e-03]
lstm_5/lstm_cell/kernel:0
(128, 256)
[[-0.11033046  0.00170074  0.07976168 ... -0.04991782 -0.07951934
  -0.06299268]
 [-0.06565408 -0.07219972  0.0538006  ...  0.12965217  0.06287943
   0.09954557]
 [ 0.10180719  0.19973375  0.21351841 ... -0.03695348  0.26434228
   0.20312648]
 ...
 [ 0.03259902  0.1806138   0.09548355 ...  0.0495928  -0.10296028
  -0.00737244]
 [-0.16978288  0.0174457  -0.13464235 ... -0.17135324 -0.14866123
  -0.14751813]
 [ 0.06506152  0.00144185  0.1337139  ... -0.10558683  0.05037619
  -0.06392276]]
lstm_5/lstm_cell/recurrent_kernel:0
(64, 256)
[[-0.10627981 -0.04363588 -0.05288386 ...  0.06982109  0.10101334
  -0.07023722]
 [-0.09059545  0.14057603 -0.12547682 ... -0.29894468  0.03112889
  -0.17760238]
 [ 0.01757379  0.06375272  0.16275741 ...  0.11243038  0.10096404
   0.09193403]
 ...
 [ 0.12464391  0.06128989  0.12777388 ...  0.00319402  0.07928697
   0.15037027]
 [ 0.00938192 -0.02220071  0.11944991 ...  0.08287261 -0.02443089
   0.06255918]
 [ 0.0976322  -0.06156338  0.11982119 ... -0.1876096   0.11836667
   0.10470351]]
lstm_5/lstm_cell/bias:0
(256,)
[-0.01926538 -0.11779146 -0.14333715 -0.10627674 -0.1346808  -0.05090454
 -0.15291609 -0.1193067  -0.07864162 -0.11605959 -0.1031649  -0.10901063
 -0.11711238 -0.07258829 -0.09344465 -0.0882483  -0.0762029  -0.09210257
 -0.07336549 -0.11430681 -0.08699885 -0.13127539 -0.0349165  -0.08449078
 -0.14100534 -0.11994582 -0.00562616 -0.02377897 -0.06182329 -0.11743482
 -0.08805244 -0.06601112 -0.13226913 -0.02990185 -0.07600426 -0.13338107
 -0.05653703 -0.08576786 -0.11942328 -0.11473    -0.10774519 -0.156764
 -0.06432088 -0.09674952 -0.06881699 -0.15132047 -0.1234434  -0.10716498
 -0.091687   -0.09104098 -0.0731236  -0.13365787 -0.12193221 -0.08976163
 -0.12851436 -0.10461471 -0.10929753 -0.12960476 -0.11567078 -0.1256518
 -0.13503964 -0.08768806 -0.1150991  -0.11403494  0.79277724  0.8526988
  0.84634423  0.9033393   0.8500712   0.83327574  0.7540949   0.8889501
  0.89560705  0.8456127   0.8399151   0.76489615  0.88636774  0.8433291
  0.8427546   0.8591638   0.73597974  0.90110576  0.8810693   0.8706153
  0.89504826  0.89420897  0.8737894   0.85136193  0.81721854  0.9166953
  0.7955413   0.81021607  0.86193717  0.9006577   0.88122654  0.8339196
  0.8545588   0.80190426  0.74546146  0.77033246  0.873684    0.8741007
  0.807579    0.85963845  0.9047562   0.86561656  0.8566033   0.8693456
  0.8911499   0.6286241   0.85853046  0.6365019   0.82755005  0.8909811
  0.92420965  0.8353533   0.88438785  0.7926233   0.8067989   0.8590133
  0.8846065   0.8674265   0.89010596  0.88343155  0.85072863  0.8454722
  0.88172925  0.88581777  0.04770151  0.02438297 -0.01861287  0.03188045
 -0.02547083 -0.05065468  0.01575691 -0.01689138 -0.02716492  0.02680732
 -0.02724722  0.03463447 -0.02219081  0.02619382  0.03224652 -0.03613005
 -0.0234034  -0.02799966 -0.03557766  0.0255715   0.03243926  0.00943933
 -0.04376512  0.01691842 -0.00494216 -0.0208725   0.05336507  0.04893266
  0.03747815  0.0200313   0.03502046 -0.02454191 -0.0317781  -0.04810685
 -0.03573956 -0.02959634  0.02950227  0.03035029 -0.02780903  0.02675552
 -0.02408725 -0.02932514  0.03784573 -0.03035122  0.03650948 -0.02702273
  0.02675745 -0.02691626  0.03357415 -0.025899   -0.02311943  0.02042685
  0.03237002  0.03031357 -0.02761437  0.02411455  0.02076398 -0.02849418
 -0.02247979  0.02777402  0.01230709 -0.0375341  -0.03021288 -0.02357219
  0.00376686 -0.11696517 -0.12110849 -0.1133702  -0.12834772 -0.06406185
 -0.14346991 -0.11169791 -0.07209571 -0.11132998 -0.10157835 -0.08513989
 -0.10655398 -0.06296782 -0.08515348 -0.08206177 -0.07638802 -0.09467093
 -0.07318985 -0.1139342  -0.08159482 -0.13321312 -0.02363977 -0.07323192
 -0.15069391 -0.10200592 -0.03496182 -0.02428684 -0.04568145 -0.10445679
 -0.09080403 -0.037578   -0.11748987 -0.02964644 -0.06278421 -0.12146556
 -0.04451148 -0.08026124 -0.10862014 -0.10555545 -0.10181838 -0.13200109
 -0.05045939 -0.09259187 -0.05371727 -0.15801953 -0.12120153 -0.09612529
 -0.07861561 -0.07941068 -0.05899726 -0.13805413 -0.10313275 -0.08181074
 -0.12401215 -0.07649367 -0.09665558 -0.1049685  -0.10700919 -0.11671768
 -0.12276779 -0.08758503 -0.08915149 -0.10371719]
lstm_6/lstm_cell/kernel:0
(64, 128)
[[ 0.20730487 -0.00114968  0.1799392  ... -0.15212911 -0.2549571
  -0.06777307]
 [ 0.12549205  0.03860786  0.11066907 ...  0.13452192 -0.06642786
  -0.16275285]
 [-0.10769451 -0.09870087 -0.07216141 ...  0.08778343  0.13315779
   0.08639446]
 ...
 [-0.08609444  0.18102522 -0.02776818 ...  0.1652146   0.09919859
   0.15790889]
 [ 0.0236962  -0.13414946  0.09352493 ...  0.01827905  0.08594417
   0.10328526]
 [ 0.15481472  0.02084801 -0.09740444 ...  0.03557121  0.02246698
   0.03321691]]
lstm_6/lstm_cell/recurrent_kernel:0
(32, 128)
[[-0.03934603 -0.10013283 -0.00399089 ... -0.21047837  0.01403418
  -0.10713173]
 [-0.18602882 -0.09026247 -0.06107735 ... -0.22760707 -0.01101618
  -0.18586048]
 [ 0.28609085  0.04516898 -0.05512725 ...  0.09156065  0.06091144
   0.00119025]
 ...
 [-0.15607575 -0.12348563 -0.13683192 ... -0.05707927 -0.02724109
  -0.23639382]
 [ 0.07551998  0.0940046  -0.24951884 ... -0.05154709  0.05307696
   0.03552642]
 [-0.26220804 -0.04107159 -0.2956853  ... -0.24186493 -0.15152565
  -0.0543195 ]]
lstm_6/lstm_cell/bias:0
(128,)
[-0.07170261 -0.05626059 -0.10541457 -0.08651516 -0.09437414  0.04396063
  0.01772014 -0.0267792  -0.05920989 -0.09777801  0.06131398 -0.07050513
 -0.08757934  0.04938472  0.031025   -0.00798728 -0.0402825  -0.06120469
 -0.01954661 -0.10676404 -0.0489312  -0.05409037 -0.02661772 -0.12428661
 -0.04930971  0.02573163 -0.015926   -0.08496978 -0.10524151 -0.08132496
 -0.06244692 -0.0410982   0.95768857  0.9699589   0.94310373  0.9310028
  0.9325455   1.0790079   0.96569306  0.9802904   0.95306945  0.9252493
  1.0627198   0.935808    0.93815356  1.047334    1.0005797   0.88731843
  0.9277679   0.9330211   0.9881318   0.9065993   0.9550774   0.9269281
  0.9381747   0.9211064   0.9552753   0.9851425   0.99058175  0.95098627
  0.933698    0.9605719   0.94961506  0.9819756  -0.01930814 -0.02499594
  0.01591552 -0.01473963  0.01859232 -0.03153874  0.02998868 -0.02416612
  0.01842036 -0.01615611  0.03834276 -0.02410491  0.02089703  0.0369726
 -0.04262083  0.03208291 -0.02180464 -0.01973754  0.02513085 -0.01449951
  0.02111175  0.02393216  0.02757344  0.01242583 -0.02369621  0.02590084
 -0.02380738 -0.02116106  0.01578368 -0.01853772 -0.02532736 -0.02980279
 -0.06843682 -0.05949616 -0.10404434 -0.08917797 -0.09729889  0.02653846
  0.01135486 -0.03177696 -0.05983644 -0.09668011  0.04394711 -0.07064173
 -0.08342208  0.04004954  0.01053174 -0.05869669 -0.04094658 -0.06548966
 -0.0201242  -0.11111037 -0.04643667 -0.05599454 -0.02527896 -0.12639014
 -0.05657848  0.02254976 -0.01980284 -0.08657207 -0.10570864 -0.0803721
 -0.0689351  -0.04732313]
dense/kernel:0
(32, 1)
[[ 0.21901965]
 [ 0.15260102]
 [-0.30808684]
 [ 0.32749176]
 [-0.27322426]
 [ 0.03314131]
 [-0.11305343]
 [ 0.12055904]
 [-0.20133667]
 [ 0.26692206]
 [-0.03795883]
 [ 0.17899416]
 [-0.24574298]
 [-0.05079233]
 [ 0.07031307]
 [-0.08574922]
 [ 0.197394  ]
 [ 0.16533186]
 [-0.17051868]
 [ 0.32097876]
 [-0.2882089 ]
 [-0.20933346]
 [-0.14434686]
 [-0.3008605 ]
 [ 0.11869445]
 [-0.11644562]
 [ 0.12935804]
 [ 0.27388203]
 [-0.22975978]
 [ 0.25055003]
 [ 0.14169699]
 [ 0.13589373]]
dense/bias:0
(1,)
[0.3880572]
