lstm/lstm_cell/kernel:0
(9, 128)
[[-0.16898325 -0.00358489 -0.24259147 ... -0.00674202  0.04900137
   0.10036469]
 [ 0.04603136 -0.16619039 -0.33090797 ... -0.45987776 -0.2631595
   0.2920965 ]
 [-0.10019295 -0.06324842 -0.09582329 ... -0.07415489  0.25837928
   0.16796692]
 ...
 [ 0.37966153 -0.24999072  0.10182742 ... -0.04245288 -0.1075969
  -0.18311848]
 [-0.10027049  0.21788515  0.03186087 ... -0.1379715   0.2129267
  -0.09671856]
 [ 0.4550888   0.16109578 -0.14843877 ... -0.8949145  -0.618003
   0.47304323]]
lstm/lstm_cell/recurrent_kernel:0
(32, 128)
[[ 0.14735943 -0.27669737 -0.28329235 ...  0.2852573  -0.03702276
  -0.0901939 ]
 [ 0.00305305 -0.27571177  0.05672098 ... -0.00477671 -0.3717901
   0.05562647]
 [ 0.16685604  0.28450972  0.02771056 ... -0.19710054 -0.1476505
   0.12430735]
 ...
 [-0.01379708  0.3342697   0.42728359 ...  0.04171547  0.48212063
   0.04562262]
 [-0.60886663 -0.6818648  -0.76900655 ...  0.01087689 -0.4892799
   0.02069475]
 [ 0.30741417  0.16996974  0.30653527 ... -0.08823138 -0.11749497
   0.04159246]]
lstm/lstm_cell/bias:0
(128,)
[-0.1291839  -0.19605981 -0.46816912 -0.41546512 -0.00650245 -0.49473724
 -0.44644266 -0.2306767  -0.1416454  -0.36983338 -0.13028705 -0.50437295
 -0.6211229  -0.12184781  0.29547665  0.36655077 -0.11066455 -0.29452476
 -0.6460135  -0.19788098 -0.19799986 -0.22167936 -0.00599322 -0.42288733
 -0.01332315 -0.11853747  0.00252808 -0.41371557  0.17468846 -0.28706262
 -0.07371181  0.02722343  0.4416631   0.5266433   0.46275258  0.47106007
  0.48244762  0.4400316   0.30034295  0.577057    0.6303919   1.3284945
  0.5509365   1.3546665   0.75432074  0.36094403  0.49164104  0.41829833
  0.81937915  0.8062858   0.8436032   0.57048386  0.63950354  0.5960193
  0.35058534  1.0196655   0.6795837   0.4739892   0.45880905  0.4556696
  0.36309582  1.1517541   0.95099425  0.48029953  0.24246718 -0.24026404
 -0.23804763 -0.26005238 -0.25140798  0.08924955  0.14236991 -0.20556104
  0.22799262  0.12116632  0.1745881  -0.01714159 -0.06975219 -0.30454236
  0.26514274 -0.3105463  -0.00308463  0.22142622 -0.08142769  0.20735851
  0.20812    -0.0101017  -0.25257754  0.17207237  0.21524274  0.24252303
 -0.26456684  0.18952975  0.29445088 -0.11897366 -0.10403518 -0.2523979
 -0.0113343  -0.17322697 -0.44914287 -0.36379105  0.03821369 -0.48747507
 -0.520471   -0.12182099 -0.14112373 -0.24160913 -0.07529394  0.05008347
 -0.25760648 -0.07087388  0.47680926  0.56394637 -0.10129785 -0.2650851
 -0.3487687  -0.21391356 -0.12609255 -0.22976078 -0.0492668  -0.16890658
  0.08123089  0.02854813 -0.01210808 -0.442002    0.3280876  -0.17736967
 -0.11345952  0.10087231]
lstm_1/lstm_cell/kernel:0
(32, 256)
[[-4.58349526e-01 -3.68108362e-01 -3.36130917e-01 ...  5.09648956e-02
  -6.00419402e-01 -5.22273719e-01]
 [-4.51904647e-02 -9.92802456e-02  2.26886988e-01 ... -2.03035131e-01
  -2.33266443e-01  2.94099927e-01]
 [ 1.16948724e-01  4.05263379e-02  2.46101364e-01 ... -4.71081883e-02
   1.79375947e-01  2.10081264e-01]
 ...
 [ 6.10310817e-04  5.20550787e-01  5.31485200e-01 ...  2.01829784e-02
   4.93103951e-01  9.93754044e-02]
 [-6.38122320e-01 -7.09210992e-01 -2.46556163e-01 ... -4.05602753e-01
  -5.34452140e-01 -3.15369546e-01]
 [ 2.57394403e-01  3.49141061e-01  1.99390665e-01 ...  4.72663306e-02
   3.49955350e-01  3.62200141e-01]]
lstm_1/lstm_cell/recurrent_kernel:0
(64, 256)
[[-0.21238893  0.20450239  0.03222435 ... -0.03070018  0.20218761
   0.00527326]
 [ 0.06361172 -0.17583132 -0.11452466 ...  0.13431996  0.03455405
   0.11533487]
 [-0.00394635 -0.08739718  0.0304457  ... -0.0009797  -0.09044047
  -0.21979707]
 ...
 [-0.13525869 -0.14913209 -0.20503424 ... -0.1077638   0.00078086
  -0.18021193]
 [-0.22289579 -0.1989221   0.03995502 ...  0.19088985 -0.24862479
   0.2532116 ]
 [ 0.0867269  -0.11676146  0.02580824 ... -0.10250159 -0.21414377
   0.2552771 ]]
lstm_1/lstm_cell/bias:0
(256,)
[-4.9670437e-01 -8.1151015e-01 -6.1112499e-01 -5.2380073e-01
 -2.0842130e-01 -5.3028256e-01 -4.7108001e-01 -6.2217444e-01
 -4.4286886e-01 -5.3256130e-01 -6.2538278e-01 -3.9866951e-01
 -6.0061371e-01 -4.0129241e-01 -6.9512427e-01 -5.8971888e-01
 -3.7524933e-01 -1.0123538e+00 -3.1318125e-01 -6.2502193e-01
 -5.4233623e-01 -5.3766745e-01 -4.7883189e-01 -5.0868857e-01
 -6.4118129e-01 -5.6156439e-01 -4.8785004e-01 -3.2577467e-01
  5.3222045e-02 -4.1769668e-01 -9.3774861e-01 -2.9298553e-01
 -4.6177959e-01 -6.6887981e-01 -9.4484198e-01 -6.4888525e-01
 -5.7157892e-01 -6.2805313e-01 -7.0320451e-01 -6.4858568e-01
 -2.9084757e-01 -8.9583361e-01 -6.2662238e-01 -6.7869163e-01
 -4.8502544e-01 -8.8619369e-01 -4.1260511e-01 -5.3413546e-01
 -7.3644382e-01 -5.1944727e-01 -3.9332119e-01 -1.0964822e+00
 -2.8999075e-01 -6.8288153e-01 -4.6014842e-01 -7.6425976e-01
 -5.5270773e-01 -5.8541137e-01 -7.3179471e-01 -4.5038387e-01
 -3.5653466e-01 -5.9877753e-01 -3.3845851e-01 -5.5387938e-01
  5.4667568e-01  5.0682044e-01  3.9343894e-01  3.7998697e-01
  8.3767086e-01  4.9601808e-01  1.6949123e-01  4.8645812e-01
  6.0461622e-01  3.7933064e-01  5.8017159e-01  7.0535052e-01
  4.2825118e-01  4.7166073e-01  9.1913182e-01  4.2695484e-01
  2.4828142e-01  5.4314542e-01  1.2969095e+00  2.8135929e-01
  1.6286781e-01  6.4765915e-02  5.3360301e-01  4.1070345e-01
  3.9617065e-01  4.0434483e-01  6.5410149e-01 -6.4037241e-02
  9.7279233e-01  4.7771677e-01  5.9054697e-01 -8.9961365e-03
  7.2516644e-01  4.0751120e-01  3.6342344e-01  4.1935617e-01
  4.1098824e-01  6.0337269e-01  4.4286847e-01  2.3072013e-01
  1.5086827e-02  5.6317586e-01  2.3716283e-01  5.6148791e-01
  3.5052100e-01  2.0534660e-01  4.5734984e-01  8.7575543e-01
  2.7935570e-01  5.6283993e-01 -1.3428268e-01  7.4037457e-01
  5.4887313e-01  2.8255749e-01  4.3081185e-01  3.0229980e-01
  3.4049827e-01  6.4603162e-01  4.9273574e-01  3.1777978e-01
  9.4508344e-01  1.0873132e-01  7.2750407e-01 -8.1494926e-03
 -5.0363112e-02 -1.0275923e-02  4.7087935e-03 -4.3363824e-02
 -1.9817732e-02 -1.2151606e-02  2.1289963e-02 -2.4596006e-02
  2.4830570e-02 -7.0607527e-03  2.3563899e-02 -4.0439248e-02
 -5.3178594e-02  5.0590135e-02  1.1417262e-01  2.2634873e-02
 -1.0162546e-02  1.2700809e-03 -4.8391353e-02 -4.4317927e-02
  3.0411217e-02  2.8641265e-02 -6.1353296e-02  4.3851689e-02
 -1.3012203e-02  4.8362664e-03  2.7208267e-02 -5.0456827e-03
 -3.7921544e-02  1.1280869e-02 -4.2280454e-02  2.7919495e-02
  5.6452159e-02 -6.2783100e-03  7.3217805e-03  2.4531143e-02
  2.1971093e-02 -2.5748804e-02 -2.4144070e-02  2.5735084e-02
  1.2000180e-02 -1.2220075e-02  3.6258947e-02 -3.9884605e-02
 -7.9240156e-03  7.1588154e-03 -9.5684379e-03 -2.5988296e-02
 -2.1627581e-02 -2.5998300e-02  5.3471383e-02  3.4836378e-02
 -3.8841002e-02  1.6847128e-02 -8.5440017e-03  3.2629918e-02
  2.0635948e-02  3.5817727e-02  4.5567811e-03  4.3091442e-02
 -5.1074933e-02 -8.9118294e-03 -2.9435696e-02  1.3304384e-02
 -4.3117723e-01 -7.3894733e-01 -6.6369921e-01 -5.3669626e-01
 -3.5405552e-01 -5.0293481e-01 -3.6527053e-01 -6.0502571e-01
 -3.2806233e-01 -5.4052883e-01 -5.5422765e-01 -4.7037485e-01
 -5.9714222e-01 -3.9399236e-01 -4.6241042e-01 -5.1728320e-01
 -3.1266090e-01 -7.7247202e-01 -1.4023566e-01 -6.0489243e-01
 -6.2370610e-01 -5.5140823e-01 -4.3130600e-01 -6.2372875e-01
 -6.8562514e-01 -3.8160390e-01 -4.7394705e-01 -1.8160687e-01
 -1.2826003e-01 -2.9796553e-01 -9.1764140e-01 -3.0474037e-01
 -3.9923573e-01 -6.6260660e-01 -9.2241925e-01 -5.8898240e-01
 -4.8509768e-01 -5.6981719e-01 -6.5740144e-01 -6.2207681e-01
 -2.4967517e-01 -7.6254582e-01 -6.2467188e-01 -6.5668952e-01
 -4.8549747e-01 -8.4649104e-01 -2.3929818e-01 -4.9733484e-01
 -7.2825760e-01 -5.5005515e-01 -3.7511089e-01 -6.8029183e-01
 -3.7827787e-01 -6.7907292e-01 -4.1642824e-01 -7.4096519e-01
 -5.6576890e-01 -5.4505622e-01 -6.8651819e-01 -4.6548271e-01
 -3.0008611e-01 -5.6923920e-01 -3.2998610e-01 -4.3769509e-01]
lstm_2/lstm_cell/kernel:0
(64, 512)
[[ 0.01856181 -0.01196411  0.10562679 ...  0.06062017  0.2165299
  -0.14706664]
 [ 0.08747017  0.02041363 -0.05436081 ...  0.02479348 -0.0517005
   0.13128331]
 [ 0.06860814  0.11814046 -0.06872308 ... -0.00969566 -0.02542515
   0.04758925]
 ...
 [-0.17048    -0.05638038 -0.09952259 ...  0.1266714   0.08346466
   0.00147535]
 [ 0.02915824 -0.05909244 -0.05585619 ... -0.06199966  0.26677135
  -0.15366475]
 [ 0.12572587  0.14188701 -0.01076017 ... -0.14189763 -0.20816389
  -0.0178939 ]]
lstm_2/lstm_cell/recurrent_kernel:0
(128, 512)
[[ 0.05757209  0.07337518 -0.12621626 ... -0.05113337 -0.0357531
  -0.10189007]
 [-0.04525166  0.01399276 -0.0413427  ... -0.08985478  0.06373278
   0.04164985]
 [ 0.130097   -0.02236523 -0.13734326 ...  0.00800447 -0.00595153
   0.03239677]
 ...
 [-0.01514404  0.0575285   0.06848118 ...  0.15740593 -0.04724077
  -0.00100365]
 [-0.02457097  0.01069699  0.06991919 ...  0.04913256 -0.07753181
  -0.00349299]
 [-0.0412947   0.01188776  0.05193141 ...  0.01542497  0.01022037
  -0.00352486]]
lstm_2/lstm_cell/bias:0
(512,)
[-1.14323223e+00 -1.23964906e+00 -8.77744436e-01 -8.04111660e-01
 -7.20215499e-01 -6.44379914e-01 -1.08002830e+00 -7.13354290e-01
 -7.53485024e-01 -6.67012036e-01 -6.51657701e-01 -9.54873979e-01
 -6.02148652e-01 -8.44959319e-01 -8.06888103e-01 -4.31593359e-01
 -8.61398757e-01 -7.69019961e-01 -8.09978962e-01 -3.96848798e-01
 -7.46075511e-01 -9.82358932e-01 -7.12965727e-01 -4.92953122e-01
 -9.17405427e-01 -9.09886658e-01 -9.87292349e-01 -1.21274626e+00
 -8.53050828e-01 -1.07146990e+00 -1.15449226e+00 -1.12122667e+00
 -7.32033193e-01 -1.08141148e+00 -1.00374806e+00 -1.00978267e+00
 -1.06397498e+00 -9.72631395e-01 -9.31333899e-01 -7.33690381e-01
 -7.81609416e-01 -7.97408521e-01 -1.18613720e+00 -8.80741477e-01
 -9.37280893e-01 -7.33806074e-01 -6.91277742e-01 -1.08076882e+00
 -4.04673010e-01 -7.57595718e-01 -1.05016303e+00 -8.23404610e-01
 -4.73507971e-01 -9.64139223e-01 -6.39463127e-01 -7.62174964e-01
 -1.15831447e+00 -8.49903762e-01 -1.28764522e+00 -8.12894464e-01
 -8.25722873e-01 -9.37168717e-01 -7.80971050e-01 -8.79673004e-01
 -4.42602813e-01 -7.71957994e-01 -7.41691947e-01 -6.61827207e-01
 -6.59790158e-01 -7.78279185e-01 -3.54802698e-01 -6.04013503e-01
 -4.28939193e-01 -7.96803772e-01 -1.15751696e+00 -3.70681971e-01
 -6.06686950e-01 -4.95747775e-01 -9.23246026e-01 -9.86406803e-01
 -6.90270901e-01 -8.97288382e-01 -6.09437883e-01 -6.27378762e-01
 -1.07149017e+00 -7.60272384e-01 -8.99765849e-01 -9.21338022e-01
 -1.04672539e+00 -1.14339054e+00 -1.09861910e+00 -4.74861890e-01
 -8.07310939e-01 -9.86032963e-01 -6.58875585e-01 -4.10732448e-01
 -1.03044319e+00 -1.05082941e+00 -5.39620459e-01 -6.98768020e-01
 -6.72584713e-01 -5.57218194e-01 -9.63250756e-01 -8.73288453e-01
 -5.04060149e-01 -9.06194150e-01 -6.52400434e-01 -6.36389375e-01
 -9.01137114e-01 -8.13043714e-01 -7.87382305e-01 -9.74639714e-01
 -8.49895358e-01 -5.90742528e-01 -6.88932538e-01 -5.76324821e-01
 -7.23920524e-01 -9.53569889e-01 -9.65961695e-01 -9.87880051e-01
 -7.59067118e-01 -3.78124982e-01 -6.07924342e-01 -7.87363470e-01
 -7.79075444e-01 -8.27546299e-01 -8.11066926e-01 -9.61899400e-01
 -1.77720860e-02 -2.02427015e-01  4.65072453e-01  3.22142124e-01
  4.10074741e-01  3.86323899e-01  2.88931459e-01  5.30950844e-01
  1.26574218e-01  5.80330789e-01  3.13679725e-01 -3.80053592e-04
  5.67887962e-01  1.56804591e-01  2.97442377e-01  8.25776279e-01
  3.57881516e-01  5.40604234e-01  5.38467467e-02  7.95382857e-01
  4.03479755e-01  2.32657716e-01  6.22730672e-01  7.47203410e-01
  1.99432135e-01  1.65406123e-01 -2.96406560e-02 -7.78977275e-02
  2.96887845e-01  3.64046991e-01 -5.60055226e-02  2.84435749e-01
  3.97310853e-01  1.91025779e-01  2.46994108e-01  1.69497415e-01
  8.17786381e-02  1.05673261e-01  3.32931608e-01  4.54463035e-01
  5.72224498e-01  3.51338327e-01 -1.58388168e-01  3.62582862e-01
  2.13022798e-01  3.90792817e-01  6.13024473e-01 -1.92239843e-02
  8.01084578e-01  4.05741870e-01  4.64033298e-02  5.26131213e-01
  8.41771364e-01  3.10014755e-01  5.17820299e-01  4.13251877e-01
  1.10266641e-01  5.45872092e-01 -1.55350538e-02  3.88597786e-01
  2.13437080e-01  2.78249413e-01  1.64066955e-01  4.49124724e-01
  8.14520299e-01 -6.61081029e-03  1.09041810e-01  1.67027801e-01
  6.11957848e-01  1.29218280e-01  8.66673172e-01  6.57240868e-01
  7.65922368e-01  5.18721581e-01 -5.40464781e-02  6.32754087e-01
  4.08428669e-01  7.72641242e-01  1.63901478e-01 -9.85511988e-02
  3.76542151e-01  9.70321223e-02  5.09857774e-01  6.34522617e-01
  7.12226108e-02  3.26760948e-01  3.48188505e-02  1.62418839e-02
  3.27444047e-01 -1.62965700e-01 -1.46441162e-01  6.88842118e-01
  4.00332123e-01  6.49549216e-02  2.78020650e-01  5.63496709e-01
 -1.87003344e-01  1.96192503e-01  5.17869651e-01  2.00344637e-01
  5.44751108e-01  2.75803477e-01  2.97268794e-04  3.36509317e-01
  8.37660849e-01  6.44003823e-02  5.51191568e-01  6.27193570e-01
  2.34770969e-01  2.92430371e-01  4.59368169e-01  2.34242246e-01
  4.40537602e-01  5.77833712e-01  2.67979860e-01  5.77145457e-01
  4.15238529e-01  1.39993444e-01  2.47076735e-01  4.27776650e-02
  1.75337300e-01  5.35855830e-01  5.97462714e-01  4.83780771e-01
  4.05471385e-01  2.78027356e-01  2.79356807e-01  9.21965614e-02
  3.95050794e-02  4.06243876e-02  8.01743008e-03  2.32145586e-03
  2.31919647e-03  1.67102236e-02 -1.17317606e-02  9.90762259e-04
 -2.39520706e-03 -1.87131148e-02 -9.71992221e-03  7.57696712e-03
  1.64804514e-02 -1.85555834e-02 -4.39390261e-03 -1.52308838e-02
 -1.14523165e-03  8.83985683e-03  2.12169029e-02 -4.01873887e-03
 -1.00937800e-03 -2.75459979e-03  1.07512176e-02  2.43990775e-03
  4.04949207e-03 -1.51835987e-02  2.70502400e-02  7.30318483e-03
 -1.57487467e-02 -1.16140405e-02  4.56136912e-02  2.85508838e-02
  7.61130592e-03 -3.59892398e-02  7.56600825e-03  1.60018690e-02
 -3.20238434e-02 -1.11872302e-02 -6.68885931e-02 -6.74887607e-03
 -1.47067970e-02 -2.34277127e-03  1.21763926e-02 -6.21373346e-03
 -2.22742651e-02 -1.23968686e-03 -1.34901777e-02 -5.24694212e-02
  1.20790219e-02  1.60313547e-02 -1.48276901e-02  4.46493365e-03
 -1.56048788e-02 -2.82312073e-02 -5.41344471e-03 -6.64077792e-03
  1.09740393e-02  1.04932040e-02  1.12643065e-02  1.75744742e-02
 -6.22443259e-02  1.62833743e-02  3.18511873e-02  1.81250721e-02
  5.07080276e-03  1.57990977e-02 -2.85487156e-03  8.14283732e-03
 -1.21676829e-03  2.22431086e-02  6.51696697e-03 -9.33451764e-03
 -8.00751336e-03 -1.36149749e-02 -2.23470088e-02  1.00572333e-02
  3.59244179e-04 -8.30516685e-03  1.34063489e-03 -1.66899024e-03
 -7.98736000e-05 -1.10802194e-02  1.44550139e-02  9.29981936e-03
 -5.66667877e-03  2.62597250e-03  1.91916677e-03 -4.31815982e-02
  1.94855891e-02 -4.56918292e-02  3.20500582e-02 -2.18230020e-02
  1.97954243e-03 -4.41888394e-03  3.35980542e-02  6.18468923e-03
  1.86859770e-03  4.49683852e-02  5.85725810e-03  1.98711418e-02
 -1.35105951e-02 -8.14610161e-03 -5.66055486e-03 -2.57262820e-03
  2.36462466e-02  5.13757055e-04 -8.18051863e-03  4.62083193e-03
 -2.82930732e-02  3.62211722e-03  2.54440568e-02 -5.95515303e-04
  9.18540824e-03  7.21258065e-03  2.91440822e-03 -1.60565563e-02
  5.00158267e-03  6.43613981e-03 -7.52154738e-03  6.89766835e-03
  1.93915870e-02 -1.65908486e-02 -1.00339549e-02 -5.92788821e-03
 -2.16348357e-02 -1.13380142e-02  3.24585773e-02 -3.89680415e-02
 -1.13885748e+00 -1.21559703e+00 -8.70595932e-01 -8.49144757e-01
 -7.87343264e-01 -6.53978229e-01 -9.81024027e-01 -6.82769656e-01
 -7.54484057e-01 -5.57738304e-01 -7.25344837e-01 -1.00589561e+00
 -6.46486163e-01 -7.91741312e-01 -8.73202562e-01 -3.91263068e-01
 -8.80957842e-01 -7.97950149e-01 -8.07724774e-01 -3.49828571e-01
 -7.29955614e-01 -9.59957123e-01 -7.25687444e-01 -4.59154010e-01
 -9.74856079e-01 -9.03621674e-01 -9.78065193e-01 -1.18731642e+00
 -8.85725737e-01 -9.83972967e-01 -1.17135024e+00 -1.06130588e+00
 -8.39985132e-01 -1.04520690e+00 -9.86651897e-01 -9.92569923e-01
 -1.04133177e+00 -1.01379156e+00 -8.42752934e-01 -7.30517983e-01
 -7.63931811e-01 -8.73803437e-01 -1.18625045e+00 -9.28458989e-01
 -8.93232286e-01 -7.43851721e-01 -6.41700149e-01 -1.03367543e+00
 -3.60053718e-01 -8.50278139e-01 -1.05592024e+00 -8.92208397e-01
 -4.45009202e-01 -9.93948340e-01 -7.04388380e-01 -8.05942237e-01
 -1.15593028e+00 -8.47100914e-01 -1.28041017e+00 -8.13238621e-01
 -8.29729319e-01 -8.89994204e-01 -7.29333520e-01 -8.72208714e-01
 -4.39575642e-01 -7.87596166e-01 -7.38470316e-01 -6.51942313e-01
 -6.35990918e-01 -7.81900108e-01 -3.04580420e-01 -5.58715224e-01
 -3.85911793e-01 -8.36618364e-01 -1.15614879e+00 -3.67805183e-01
 -5.76557636e-01 -5.16175151e-01 -8.98610115e-01 -9.87536430e-01
 -6.96131051e-01 -8.95631909e-01 -5.86771369e-01 -6.59425914e-01
 -1.08822072e+00 -7.57827222e-01 -8.86366606e-01 -8.83006632e-01
 -9.60596204e-01 -1.13435495e+00 -1.12342906e+00 -5.20968020e-01
 -8.93743038e-01 -9.86216307e-01 -6.30756557e-01 -3.72564942e-01
 -1.03073668e+00 -1.01299810e+00 -5.54056287e-01 -6.84183717e-01
 -6.75801337e-01 -5.25730789e-01 -1.02799726e+00 -8.97956669e-01
 -4.78814363e-01 -9.29757714e-01 -6.02242947e-01 -6.56953096e-01
 -9.42568243e-01 -7.79153943e-01 -8.41872334e-01 -8.85721385e-01
 -9.29804742e-01 -6.57144606e-01 -7.75658309e-01 -5.57587504e-01
 -7.07791209e-01 -8.76448512e-01 -9.88426089e-01 -9.54539955e-01
 -7.45061278e-01 -3.58574033e-01 -6.87694192e-01 -7.64140725e-01
 -7.62341022e-01 -7.89697170e-01 -8.59048545e-01 -9.34646487e-01]
lstm_3/lstm_cell/kernel:0
(128, 1024)
[[-0.14267726  0.04131107  0.07030036 ... -0.06181959 -0.11116917
  -0.0168897 ]
 [-0.0217245  -0.028107   -0.06741066 ... -0.05412026 -0.00538092
  -0.02374401]
 [ 0.06988925 -0.03804206 -0.06401388 ... -0.03523058  0.07218691
   0.00073208]
 ...
 [-0.06091017  0.00618545  0.01414943 ... -0.0034912   0.15367825
   0.03382986]
 [ 0.09428507 -0.05973409  0.00535647 ... -0.031601    0.0769055
   0.04296502]
 [-0.03214672 -0.01859311 -0.02692055 ... -0.06000397  0.04297949
  -0.06404473]]
lstm_3/lstm_cell/recurrent_kernel:0
(256, 1024)
[[ 0.05360959  0.00867455 -0.02928938 ...  0.03620439 -0.05413453
   0.00179888]
 [ 0.01066091  0.00886871  0.01348538 ... -0.03436882  0.00739709
   0.01681343]
 [-0.03003717  0.00049679  0.03510445 ... -0.05550573  0.024113
  -0.03314824]
 ...
 [ 0.02771351  0.02284111 -0.02393984 ...  0.08040316  0.00423542
  -0.01244949]
 [ 0.02385092  0.02911361  0.0325414  ...  0.05237177  0.0114341
   0.04555877]
 [-0.04625128 -0.00799079  0.04593585 ... -0.01132519 -0.04236709
  -0.04136831]]
lstm_3/lstm_cell/bias:0
(1024,)
[-1.1108136 -1.1439521 -1.000583  ... -1.2495787 -0.9287724 -1.2751255]
lstm_4/lstm_cell/kernel:0
(256, 512)
[[-0.04831895  0.0984483  -0.09737382 ... -0.0541779  -0.02747557
  -0.08493063]
 [-0.03203633 -0.01293798  0.00333854 ...  0.06645332 -0.05643885
  -0.00774   ]
 [ 0.05462691  0.04164281  0.05782629 ...  0.06731968  0.00777131
   0.09458433]
 ...
 [ 0.00421868 -0.02224016 -0.01155937 ... -0.0533914  -0.03028244
   0.09483925]
 [-0.00118027  0.03608441  0.00387294 ... -0.24515821 -0.04718402
  -0.0453065 ]
 [ 0.01719225  0.00972452 -0.06068606 ...  0.0137593  -0.0534988
  -0.03321435]]
lstm_4/lstm_cell/recurrent_kernel:0
(128, 512)
[[ 0.09317417 -0.03264127 -0.01913175 ... -0.09139792 -0.0581224
   0.02466284]
 [-0.06824861 -0.06959329  0.07308196 ... -0.03540798 -0.09671755
  -0.05546763]
 [ 0.05676077  0.01887795  0.02112218 ... -0.10203008  0.00645637
   0.03904396]
 ...
 [-0.14612645  0.06906781 -0.01423264 ...  0.00547742 -0.05582619
  -0.11738398]
 [-0.0028575   0.03194726  0.04675632 ... -0.03016563 -0.08896126
   0.01136319]
 [ 0.03009109  0.11649178 -0.01559654 ...  0.07194443  0.08721752
   0.13944058]]
lstm_4/lstm_cell/bias:0
(512,)
[-9.78307843e-01 -9.46297944e-01 -1.30737412e+00 -1.01056564e+00
 -3.85994434e-01 -6.83736086e-01 -8.92480195e-01 -1.06178367e+00
 -1.02279699e+00 -8.22424471e-01 -7.62811720e-01 -9.16186333e-01
 -9.33261037e-01 -8.24344993e-01 -8.94744456e-01 -1.48282099e+00
 -1.19357347e+00 -1.10056829e+00 -1.27885330e+00 -7.00681508e-01
 -1.14609015e+00 -7.56842673e-01 -9.98139977e-01 -9.12415802e-01
 -1.43884206e+00 -1.39374363e+00 -1.17029965e+00 -1.01608002e+00
 -3.67529154e-01 -9.20431912e-01 -5.90547383e-01 -1.05506289e+00
 -1.04090559e+00 -6.68077707e-01 -8.11540961e-01 -9.72161710e-01
 -7.44830728e-01 -1.01043570e+00 -1.31104279e+00 -7.99731970e-01
 -7.21904755e-01 -8.58409822e-01 -6.44645274e-01 -9.79135633e-01
 -9.20061946e-01 -1.00517118e+00 -8.01087081e-01 -1.06240535e+00
 -8.29113841e-01 -6.47649229e-01 -1.06668949e+00 -1.02812099e+00
 -9.21350360e-01 -8.60778034e-01 -1.35031533e+00 -9.93941963e-01
 -8.11597228e-01 -8.94739687e-01 -1.16145957e+00 -7.27653444e-01
 -1.30960417e+00 -6.86817169e-01 -9.18023765e-01 -1.06468844e+00
 -1.14757240e+00 -9.11322176e-01 -1.33830392e+00 -8.05201054e-01
 -8.34056973e-01 -1.13058424e+00 -9.11787033e-01 -7.31826246e-01
 -1.44989979e+00 -9.91586745e-01 -1.39490783e+00 -9.68393147e-01
 -1.33860970e+00 -7.50415444e-01 -4.90092158e-01 -5.52648306e-01
 -8.89838159e-01 -7.51204908e-01 -9.34372365e-01 -6.37507319e-01
 -7.00773060e-01 -6.25777125e-01 -1.42294681e+00 -1.44517803e+00
 -7.69170940e-01 -8.79268467e-01 -1.10958314e+00 -7.40050852e-01
 -8.81421924e-01 -1.38980234e+00 -9.15048838e-01 -6.45086348e-01
 -3.82584125e-01 -1.03213906e+00 -1.07144165e+00 -9.95597363e-01
 -9.33237553e-01 -9.88627374e-01 -8.85604978e-01 -1.12125456e+00
 -7.37271428e-01 -8.47889543e-01 -1.20926046e+00 -9.79699016e-01
 -7.38974392e-01 -8.57703924e-01 -1.14146233e+00 -8.15577328e-01
 -5.52431285e-01 -1.12751412e+00 -1.08233523e+00 -1.42448223e+00
 -8.68910193e-01 -9.90527928e-01 -8.64957929e-01 -6.92039728e-01
 -1.19524145e+00 -1.00176442e+00 -1.11548924e+00 -8.43473315e-01
 -8.92538726e-01 -7.01559186e-01 -7.75742471e-01 -9.18366373e-01
  4.82095271e-01  4.01737183e-01 -8.60073343e-02  3.47132266e-01
  6.98178351e-01  7.41668105e-01  5.22597432e-01  2.91977406e-01
  1.70562670e-01  6.52735591e-01  4.44279134e-01  5.17266750e-01
  3.82282913e-01  5.38966179e-01  1.65941879e-01 -2.62612283e-01
  1.39596671e-01 -2.05187034e-02 -9.10051540e-02  1.74110487e-01
 -1.11272365e-01  3.38211834e-01 -3.01022083e-02  3.66936624e-01
 -1.93632126e-01 -1.20822206e-01  1.19650997e-02  2.84277648e-01
  8.67427886e-01  2.56740987e-01  8.07404876e-01 -9.35625881e-02
  5.87970018e-01  5.39226770e-01  5.18491447e-01  4.10180718e-01
 -7.47179389e-02 -1.69517696e-01 -1.24416128e-01  6.27134204e-01
  2.67378032e-01  4.34504837e-01  6.24038637e-01  1.59950003e-01
 -2.40056872e-01 -2.45580766e-02  5.99139452e-01  3.37236255e-01
  2.61774361e-01  2.01681152e-01  2.03312367e-01  1.89588174e-01
  5.14020085e-01  5.46183109e-01 -1.03343420e-01  4.29933369e-02
  4.67422009e-01  4.82434362e-01  1.43518269e-01  2.63530880e-01
 -1.94642380e-01  4.55068648e-01  4.75274622e-01  1.39184356e-01
  2.59268492e-01  4.27996308e-01 -2.04516754e-01  4.02228057e-01
  5.11973202e-01 -3.13204974e-02  4.76123303e-01  6.15854502e-01
 -2.45167300e-01 -3.69832218e-02 -2.39901155e-01  5.40255010e-01
 -2.79143751e-01  5.80243587e-01  8.21221948e-01  7.70067394e-01
  4.40799564e-01  6.34545445e-01  2.76974082e-01  2.84342915e-01
  4.95448977e-01  3.61685157e-01 -3.16302329e-01 -2.30809495e-01
  6.23863935e-01  2.00544208e-01  2.92842597e-01  6.43236339e-01
  4.79403019e-01 -2.54228741e-01  3.25519145e-01  4.53259617e-01
  9.14425075e-01  1.64538667e-01  3.30162078e-01  3.72354656e-01
  2.34203890e-01 -8.94871578e-02  1.38309777e-01 -1.72046930e-01
  6.65384531e-01  5.01608491e-01  5.71324229e-02  2.77701467e-01
  4.61253643e-01  3.43657553e-01  8.31852183e-02  5.13744831e-01
  6.63775444e-01  1.75560504e-01  1.52880505e-01 -2.88433492e-01
  4.46588010e-01 -1.22243963e-01  4.65139002e-01  4.84586060e-01
  6.89144209e-02  3.71417820e-01  1.91174716e-01  4.30697411e-01
  8.76808912e-02  2.51052946e-01  5.38563013e-01  4.03886676e-01
  3.25918361e-03  7.51939509e-03  1.38708306e-02 -1.60971899e-02
  1.80436391e-02  1.67323016e-02  1.52490819e-02 -7.95867015e-03
 -2.08527315e-02 -2.61545135e-03  1.27882231e-02  1.21549668e-03
  8.44895560e-03 -3.69526818e-03 -1.02099718e-03 -1.62814874e-02
 -2.66181976e-02 -3.98762897e-03  1.20445052e-02 -3.40337818e-03
  1.24438880e-02 -1.09553579e-02  1.00127906e-02 -1.93671864e-02
 -1.03383632e-02 -2.51398468e-03 -1.32861175e-02  8.65916256e-03
  3.15072713e-03 -3.52255942e-04 -1.08861970e-03 -2.85114348e-02
 -1.58092286e-03 -5.30524133e-03  4.72779991e-03  1.21919659e-03
  1.35242734e-02 -2.49194261e-03 -1.47992680e-02 -1.46245938e-02
 -2.30133953e-03 -7.37229642e-03  1.09574366e-02  9.00102500e-03
  1.68393422e-02 -3.44370268e-02 -1.04476521e-02  6.33856701e-03
 -2.22009374e-03 -1.69416443e-02  8.51859339e-03 -1.25798956e-02
  5.91836777e-03  3.12221656e-03  1.90095697e-02  2.09167190e-02
  6.74024224e-03 -1.66434736e-03  1.40420627e-04 -1.60571933e-02
  3.26132029e-03 -4.92266752e-03  3.90952127e-03 -5.67059685e-03
  1.54962745e-02  3.21040563e-02 -2.21977122e-02 -1.41510684e-02
  1.47577599e-02 -6.97507756e-03 -7.53180939e-04 -3.14516574e-02
 -5.27966255e-03 -3.93932173e-03 -5.22079645e-03  5.39765181e-03
 -6.90846331e-03 -1.71254424e-03 -1.07995905e-02  3.48057784e-03
 -3.80620430e-03 -8.17164406e-03 -2.01663487e-02 -2.26818072e-03
  2.19593826e-03  1.92879383e-02  6.44239876e-03 -9.88271553e-03
  9.65505000e-03  6.34183176e-03  4.02285764e-03  2.27222573e-02
 -1.12693310e-02  6.37370336e-04 -4.88771265e-03  3.31206596e-03
 -5.82851423e-03  1.60596222e-02  1.30520388e-03  1.90576131e-04
 -5.92110492e-03 -5.12888934e-03  2.33876123e-03  1.55855604e-02
 -1.30406034e-03  1.83315221e-02  5.36679802e-03 -1.84275713e-02
  4.35946835e-03 -5.02969092e-03  6.94836350e-03 -3.06851380e-02
 -2.07721349e-02 -2.33344408e-03 -7.68796541e-03  1.75593346e-02
 -4.68957704e-03 -1.80611312e-02 -1.59332808e-02  2.88921618e-03
 -3.77304778e-02  8.86927545e-03 -2.31406949e-02  1.06760450e-02
 -6.30526571e-03  2.17279829e-02 -2.47124173e-02  1.72543642e-03
 -9.73238051e-01 -9.29354727e-01 -1.27556372e+00 -9.75500405e-01
 -3.72957975e-01 -6.12123549e-01 -9.00699377e-01 -1.04102004e+00
 -9.99046504e-01 -7.89517820e-01 -7.97335088e-01 -9.13267195e-01
 -9.05107498e-01 -8.39259148e-01 -8.80555093e-01 -1.48183250e+00
 -1.14219010e+00 -1.10208428e+00 -1.25723422e+00 -7.24384248e-01
 -1.15755844e+00 -7.83298194e-01 -1.00121915e+00 -9.02160943e-01
 -1.43290150e+00 -1.38970637e+00 -1.16422749e+00 -9.67790246e-01
 -3.69799197e-01 -9.34028625e-01 -5.86624265e-01 -1.04187799e+00
 -8.31180930e-01 -6.34985745e-01 -7.97146320e-01 -9.18302596e-01
 -7.51834154e-01 -1.02910054e+00 -1.42489552e+00 -7.78537810e-01
 -7.08805025e-01 -8.50232542e-01 -6.58431590e-01 -9.96363223e-01
 -9.17231202e-01 -1.00185013e+00 -8.11642528e-01 -1.06028783e+00
 -9.76668715e-01 -6.56862855e-01 -1.06813622e+00 -1.02884066e+00
 -8.57558072e-01 -8.46158862e-01 -1.35838401e+00 -1.00767803e+00
 -8.15214217e-01 -8.98297608e-01 -1.20224261e+00 -8.01941335e-01
 -1.29880154e+00 -7.12292135e-01 -8.51870656e-01 -1.04653943e+00
 -1.06161320e+00 -9.14252222e-01 -1.32932127e+00 -7.92493224e-01
 -8.11757624e-01 -1.12409663e+00 -9.16575491e-01 -7.28282869e-01
 -1.44534528e+00 -1.00831616e+00 -1.38221240e+00 -9.14421260e-01
 -1.32524884e+00 -7.88100183e-01 -4.70218509e-01 -5.21028340e-01
 -8.77351940e-01 -7.58356273e-01 -9.24848735e-01 -6.69148922e-01
 -7.33430266e-01 -6.07735276e-01 -1.39702201e+00 -1.45047200e+00
 -7.17953146e-01 -9.03106630e-01 -1.04485929e+00 -7.31035173e-01
 -8.77110839e-01 -1.39080441e+00 -9.21907723e-01 -6.22573197e-01
 -3.80898058e-01 -1.04965758e+00 -9.94784296e-01 -9.99746919e-01
 -9.44398999e-01 -1.00174105e+00 -8.68569970e-01 -1.11133683e+00
 -6.79527104e-01 -8.03045034e-01 -1.20344245e+00 -8.70582581e-01
 -7.55211294e-01 -8.71118426e-01 -1.15054035e+00 -8.09359193e-01
 -5.70337892e-01 -1.11392713e+00 -9.94507670e-01 -1.42921925e+00
 -8.95048141e-01 -9.69064951e-01 -8.25686753e-01 -6.77926123e-01
 -1.19192588e+00 -8.58967066e-01 -1.14874327e+00 -8.52960289e-01
 -9.25291359e-01 -6.51146829e-01 -7.50640988e-01 -8.72195244e-01]
lstm_5/lstm_cell/kernel:0
(128, 256)
[[ 0.10220347  0.19491537 -0.03679818 ... -0.00315297  0.11407244
  -0.13146724]
 [ 0.05997914 -0.0409879   0.10073131 ... -0.1856618  -0.15085028
  -0.149979  ]
 [-0.04044795 -0.22032465  0.02312105 ...  0.08441272 -0.0555579
  -0.14195164]
 ...
 [-0.17357546 -0.46099687  0.11393066 ... -0.08380745  0.19062407
  -0.20826022]
 [ 0.12470932 -0.07241249  0.2183103  ...  0.03392903 -0.0702334
   0.01560697]
 [ 0.01519123 -0.12568969 -0.1660666  ...  0.16029344 -0.17409578
  -0.09343204]]
lstm_5/lstm_cell/recurrent_kernel:0
(64, 256)
[[ 0.39096683  0.13596295  0.16185942 ...  0.0888747   0.250928
   0.21569917]
 [-0.3499038  -0.24021159 -0.04574165 ... -0.27055678  0.15130706
  -0.28830543]
 [-0.10239174 -0.12475273 -0.03215001 ... -0.05267235 -0.07202141
  -0.24053556]
 ...
 [ 0.24366786 -0.03407185  0.1066734  ...  0.33579984 -0.03371427
   0.2864009 ]
 [-0.15502147 -0.18209283 -0.08892811 ... -0.09371395 -0.24684958
  -0.3268395 ]
 [-0.10300916  0.13313882  0.00729165 ...  0.02238745 -0.12431255
  -0.12734595]]
lstm_5/lstm_cell/bias:0
(256,)
[-4.70916957e-01 -6.53154016e-01 -5.62060714e-01 -1.32177317e+00
 -8.16154718e-01 -7.65358031e-01 -5.28520882e-01 -6.03785992e-01
 -5.89514732e-01 -6.76397085e-01 -9.16549563e-01 -1.00208974e+00
 -8.81149769e-01 -8.47338319e-01 -8.18272293e-01 -6.79509163e-01
 -5.54386497e-01 -9.09957647e-01 -1.06607473e+00 -7.88247645e-01
 -6.10465646e-01 -9.82173324e-01 -8.42052877e-01 -8.55135143e-01
 -9.17960048e-01 -7.02373564e-01 -8.21647882e-01 -9.50114131e-01
 -7.68056214e-01 -6.39819026e-01 -6.30394518e-01 -8.25028598e-01
 -6.56381726e-01 -6.48595452e-01 -1.05306089e+00 -8.98265362e-01
 -8.56538951e-01 -1.09978116e+00 -7.33247757e-01 -1.06177771e+00
 -8.38467538e-01 -6.17814779e-01 -7.23647058e-01 -1.00824714e+00
 -8.82509708e-01 -6.33020520e-01 -5.50755441e-01 -8.47465754e-01
 -6.08013272e-01 -8.98097217e-01 -8.79049599e-01 -8.63660872e-01
 -7.76763439e-01 -5.11854470e-01 -8.79995167e-01 -8.02640855e-01
 -5.82592905e-01 -8.35128427e-01 -6.26253664e-01 -7.54730463e-01
 -7.45736122e-01 -7.40226626e-01 -6.25888586e-01 -8.30361009e-01
  8.40601325e-01  3.82368475e-01  6.25616968e-01 -8.26972798e-02
  1.04193538e-01  4.45830524e-01  7.66065776e-01  5.76319575e-01
  7.01698303e-01  8.10096800e-01  1.05113849e-01  2.33683571e-01
  2.43207410e-01  4.61192816e-01  7.41285235e-02  6.10335410e-01
  7.16527343e-01  4.96667117e-01  5.37430942e-01  4.81107473e-01
  8.25115860e-01  1.44055530e-01  3.48047167e-01  5.96868336e-01
  2.50096142e-01  5.53218424e-01  5.05166948e-01  4.64860797e-01
  4.12245363e-01  6.65926993e-01  7.19619930e-01  4.08161223e-01
  6.27379119e-01  6.38177216e-01  3.53304982e-01  3.72788638e-01
  2.12284952e-01  3.91692549e-01  6.78751171e-01  8.61028209e-02
  4.67215478e-01  6.46580160e-01  6.33182645e-01  9.87595245e-02
  6.20525718e-01  6.40600860e-01  8.55656147e-01  4.00026500e-01
  6.72305465e-01  4.95019287e-01  4.68530089e-01  8.43943477e-01
  4.79793966e-01  8.28739464e-01  4.64326382e-01  5.14710546e-01
  7.14307725e-01  3.58683169e-01  6.15368605e-01  5.64955473e-01
  5.91706455e-01  6.88537955e-01  7.43762672e-01  5.40297747e-01
  4.25531436e-03  2.82496903e-02  2.85307365e-03  3.28597315e-02
 -5.62128407e-05 -4.19965154e-03 -1.72366556e-02  1.12514254e-02
 -1.79466363e-02  1.01710232e-02 -4.61045140e-03  1.27458936e-02
  2.20168922e-02 -3.16784307e-02  1.50101609e-04 -2.23744549e-02
 -1.67839341e-02 -1.13655785e-02  7.34912604e-03  6.95430953e-03
  6.12534932e-04  2.83969827e-02  3.86627973e-03  9.40726697e-03
 -2.96525806e-02  2.43804529e-02 -2.94748787e-02  2.98881549e-02
 -8.02802108e-03  2.30369847e-02 -1.50374854e-02 -2.27975613e-03
  1.33127337e-02  4.99382801e-03  1.51822008e-02 -1.46354754e-02
 -2.09279638e-03  2.06465982e-02 -6.04385627e-04 -7.13378005e-03
  2.91438377e-03 -3.63647602e-02 -1.30633013e-02 -7.00777909e-03
  4.62768396e-04 -1.80478729e-02 -2.66511533e-02  9.07068048e-03
 -1.39275277e-02  8.17668345e-03  2.84029618e-02  4.54142056e-02
 -1.88118517e-02 -6.49188645e-03 -1.76460054e-02  1.79316662e-02
 -2.79366188e-02  1.57675836e-02  1.36906316e-03 -7.16774026e-03
  9.39165242e-03 -9.49222781e-03  4.62093018e-03  1.08180335e-02
 -3.42812985e-01 -6.14795983e-01 -5.52891016e-01 -1.28762841e+00
 -8.59222353e-01 -7.14702070e-01 -5.36456347e-01 -6.14583671e-01
 -5.77528954e-01 -5.50608456e-01 -9.10231709e-01 -1.00618851e+00
 -8.78355861e-01 -9.37350094e-01 -8.73887002e-01 -6.96410656e-01
 -5.77685118e-01 -8.83143902e-01 -1.03118742e+00 -7.67170548e-01
 -5.76544344e-01 -9.97295916e-01 -8.77644658e-01 -8.13932836e-01
 -9.14376557e-01 -7.15623975e-01 -7.64083505e-01 -9.91591275e-01
 -7.88154066e-01 -6.51598275e-01 -6.34601355e-01 -8.52927625e-01
 -6.44955218e-01 -5.55920601e-01 -1.05415261e+00 -9.35017586e-01
 -8.75392079e-01 -9.52753603e-01 -6.71493113e-01 -1.08555472e+00
 -9.01648283e-01 -6.76843405e-01 -7.26820588e-01 -1.02103782e+00
 -6.19437516e-01 -6.89447761e-01 -5.42832971e-01 -8.63857329e-01
 -5.88041544e-01 -7.68632591e-01 -8.23801458e-01 -6.45699263e-01
 -6.90785170e-01 -5.16956389e-01 -8.94060910e-01 -8.85287344e-01
 -6.07373893e-01 -8.96990597e-01 -6.33770049e-01 -7.41625547e-01
 -5.09532452e-01 -7.00369000e-01 -5.77417314e-01 -7.83809900e-01]
lstm_6/lstm_cell/kernel:0
(64, 128)
[[ 1.5801781e-01 -1.9158113e-01  2.8434977e-01 ...  2.9148570e-01
   1.4550078e-01  2.1552370e-01]
 [ 1.6253541e-01 -3.9027646e-04 -7.9833098e-02 ... -3.2046908e-01
  -2.2381230e-01 -1.3193117e-02]
 [ 1.0889469e-02 -1.7325333e-01 -8.7614588e-02 ... -5.2002019e-01
  -4.2582837e-01  3.9230730e-02]
 ...
 [-4.6740744e-02  1.8160965e-01  1.5382829e-01 ...  5.4111224e-01
   2.1531163e-01 -1.4695066e-01]
 [ 2.2810185e-02 -2.0826770e-02 -9.2464231e-02 ... -4.8178062e-01
  -4.0023616e-01  5.0864682e-02]
 [-1.2900600e-01 -2.2933083e-02 -1.1551886e-01 ... -2.7825460e-01
  -1.7722372e-02  6.8526104e-02]]
lstm_6/lstm_cell/recurrent_kernel:0
(32, 128)
[[-0.14600936  0.42244297  0.30717137 ...  0.34865916  0.18385735
   0.19486587]
 [ 0.13225149 -0.12432986 -0.17171007 ...  0.07439982  0.09673599
   0.3517692 ]
 [-0.5260026  -0.20879625 -0.2389489  ... -0.34848538 -0.3024593
  -0.03650911]
 ...
 [ 0.35770914  0.29185355  0.2582575  ...  0.15177676  0.44696784
   0.01073774]
 [ 0.02861051  0.41878816  0.00471961 ...  0.3375936   0.39459896
   0.24402745]
 [-0.5022761   0.6124752  -0.02277241 ... -0.36626542 -0.55738264
  -0.2877131 ]]
lstm_6/lstm_cell/bias:0
(128,)
[-0.5017737  -0.3628344  -0.32251456 -0.3380208  -0.43494493 -0.41221035
 -0.59824187 -0.27753723 -0.39217588 -0.55916035 -0.05019112 -0.463367
 -0.14587756 -0.5642194  -0.05234829 -0.4092768  -0.50182587 -0.22184655
 -0.96249664 -0.5171032  -0.8862183  -0.25914964 -0.32095164 -0.11689608
 -1.0853392  -0.06086231 -0.22791196 -0.20035245 -0.81078184 -0.61795664
 -0.60434186 -0.13119031  0.3155749   0.6643386   0.82808584  0.3642566
  0.85317165  0.30697232  0.9078696   0.2189557   0.89615     0.76077646
  1.016271    0.7377545   1.0219656   0.77042776  1.0991834   0.79762006
  0.8142528   0.9816474   0.47426155  0.7367625   0.49655315  0.71219605
  0.6811087   1.1095173   0.10778528  1.0461315   1.1100413   0.99801534
  0.48709697  0.79502255  0.7521606   0.9758274  -0.13415727 -0.06069802
  0.03211016 -0.10001569  0.06037509 -0.19668502 -0.00926683 -0.16388117
 -0.12456634 -0.11664813 -0.20576985 -0.16928437  0.10769568 -0.02688362
  0.21018031 -0.06188983 -0.0781512  -0.06637042 -0.03641971 -0.1804075
 -0.01953606 -0.04942837  0.03088738  0.08955746 -0.07433079  0.20376796
 -0.05293373 -0.10345452 -0.1122814  -0.03506082 -0.00811877  0.16007943
 -0.49029744 -0.35229445 -0.31335753 -0.3530934  -0.41543546 -0.41600394
 -0.6191157  -0.26042375 -0.10970774 -0.53714633 -0.15282969 -0.48245507
 -0.10929433 -0.56986386 -0.0510498  -0.42900553 -0.49547875 -0.27645293
 -0.96359086 -0.51284045 -0.89991593 -0.28672135 -0.34424147 -0.07583238
 -1.0599723  -0.11521842 -0.20011978 -0.22789016 -0.8827749  -0.6211403
 -0.6423835  -0.28476474]
dense/kernel:0
(32, 1)
[[-7.62821808e-02]
 [ 7.47436285e-02]
 [ 7.64613673e-02]
 [ 6.83333054e-02]
 [ 2.91799475e-02]
 [-8.88871551e-02]
 [-1.87462941e-02]
 [ 5.93306199e-02]
 [-6.25314191e-02]
 [ 2.44842991e-02]
 [-8.37071985e-02]
 [-1.26685902e-01]
 [ 2.20419377e-01]
 [-4.90001310e-03]
 [ 3.61149848e-01]
 [ 2.12900471e-02]
 [ 9.49624646e-03]
 [-4.98103164e-03]
 [-7.15068821e-03]
 [-1.17317967e-01]
 [ 6.89793983e-03]
 [-8.74963254e-02]
 [ 1.03013583e-01]
 [ 2.21080542e-01]
 [-4.72196145e-03]
 [ 2.88788646e-01]
 [-1.05263785e-01]
 [-1.09922362e-03]
 [-3.34091932e-02]
 [ 6.80225639e-05]
 [-3.01129650e-02]
 [-9.32000726e-02]]
dense/bias:0
(1,)
[0.16777143]
