lstm/lstm_cell/kernel:0
(19, 128)
[[-0.16542903  0.10908976 -0.0046559  ...  0.0325104  -0.12308137
  -0.14345327]
 [-0.12755188 -0.15412387  0.1269515  ... -0.07358012 -0.05808577
   0.06779765]
 [-0.1230217  -0.08086362 -0.2254604  ...  0.27038905 -0.5758133
   0.07094992]
 ...
 [ 0.11936065 -0.48919815 -0.5727732  ... -0.22688085 -0.37315914
  -0.08220077]
 [ 0.16561443 -0.6169809  -0.53420156 ... -0.4349335  -0.7128774
  -0.10332511]
 [ 0.04468384 -0.0442776  -0.54709744 ...  0.13320608  0.05814457
  -0.43729383]]
lstm/lstm_cell/recurrent_kernel:0
(32, 128)
[[ 0.05921243  0.16140962 -0.2476452  ...  0.11159522  0.20470728
  -0.1327558 ]
 [-1.7462918   0.29951623  0.08317412 ... -0.12739408  0.21369357
   0.20082219]
 [-1.250519    0.09222751 -0.06385267 ... -0.5521757  -0.46081346
   0.5373167 ]
 ...
 [ 0.03353157 -0.66355604 -0.43654898 ... -0.2686365   0.14363186
  -0.14654149]
 [-0.38625398  0.9712593   0.06793742 ... -0.3952292  -0.13321412
   0.02428488]
 [-0.25293738  0.87405485 -0.1118137  ... -0.3135297   0.03448505
  -0.20154536]]
lstm/lstm_cell/bias:0
(128,)
[-0.38165078  0.04354164  0.08374819 -0.23358092 -0.41155213 -0.37277797
 -0.15137291  0.11599103  0.15060182 -0.34151343 -0.30185995 -0.57447237
 -0.32789284  0.24470556  0.2062088  -0.5550482  -0.4785259   0.19462912
 -0.13687927 -0.6814392  -0.5348739  -0.61447394 -0.7409934  -0.6184764
 -0.49665588 -0.4306875   0.02378139 -0.4184475  -0.5591706  -0.5933308
  0.10534766  0.1860169   0.81448114  1.2909399   1.0851249   0.36639643
  0.6739406   0.57956916 -0.15182874  1.2166098   1.3623654   0.5734223
  0.8872364  -0.3965954   0.09276418  0.7689525   0.3471495   0.7066603
  0.2530442   1.7446895   0.50746197  0.33018243  0.92327064  0.3971786
  0.54255396  0.46165997  0.48488894  0.5356986   1.1734233   0.46923873
 -0.03578043  0.5841031   0.54401535  0.9421643  -0.44276506 -0.01736599
 -0.1585357   0.412246    0.44167173 -0.49331117  0.54738     0.50061953
  0.37377936  0.39492825 -0.2640451  -0.41320497  0.49329993  0.49429712
 -0.59757245  0.37287474 -0.4904729  -0.39299628  0.5132673   0.23188494
 -0.52081656 -0.2735514   0.42937168  0.4710144   0.49989256  0.5018494
  0.17628327 -0.58578193 -0.52929276  0.39086506 -0.63278586 -0.44444937
 -0.18423308  0.26730427  0.3053463  -0.14334291 -0.40108228 -0.3197897
 -0.32590458  0.12263074  0.22500126 -0.36273995  0.18514566 -0.68602896
 -0.27069947  0.32863104  0.32076663 -0.4533054  -0.5112503   0.24641842
 -0.14336225 -0.8110863  -0.3749893  -0.77821    -0.6069273  -0.56162065
 -0.55993646 -0.37227476  0.09588848 -0.4460331  -0.4557617  -0.558181
  0.09243096  0.3060445 ]
lstm_1/lstm_cell/kernel:0
(32, 256)
[[ 0.33328962  0.3362286  -0.10995989 ...  0.5933375   0.25609067
   0.14182724]
 [-0.56008685 -0.282894   -0.50741565 ... -0.52360046 -0.1367823
  -0.14671841]
 [-1.1069202  -0.6662146  -0.69717956 ... -0.518325    0.34318244
  -0.08518151]
 ...
 [-0.04913324 -0.5537032  -0.2449882  ... -0.9833765  -1.60349
   0.00861941]
 [-0.2525924  -0.1439218  -0.46002865 ... -0.4485581   0.02080951
  -0.15192026]
 [-0.1720896   0.26329458 -0.24713345 ...  0.67337644  0.9601047
  -0.24454165]]
lstm_1/lstm_cell/recurrent_kernel:0
(64, 256)
[[-0.31554836 -0.03879993  0.01075284 ... -0.35258824  0.47315827
  -0.07339408]
 [ 0.1349537   0.285041   -0.051614   ...  0.31437078  0.13723914
  -0.0991587 ]
 [ 0.02381574 -0.0652038   0.11256822 ...  0.06526204 -0.46410748
   0.09429795]
 ...
 [-0.021059   -0.17037474 -0.01360962 ...  0.14051868  0.09749393
  -0.01175673]
 [-0.23366006  1.284162    0.25341782 ...  0.31820443  1.7858764
  -0.18123837]
 [-0.06125753  0.05741571 -0.09795639 ...  0.09375488  0.12075301
  -0.14754942]]
lstm_1/lstm_cell/bias:0
(256,)
[-1.09701836e+00 -1.01597869e+00 -1.08596623e+00 -9.81008887e-01
 -8.46879959e-01 -8.69256794e-01 -1.21383107e+00 -1.01758921e+00
 -8.47019553e-01 -1.00158012e+00 -7.47908831e-01 -1.12160254e+00
 -1.23185575e+00 -1.21400559e+00 -9.06953394e-01 -8.47202480e-01
 -7.54401505e-01 -1.17454255e+00 -8.80052507e-01 -9.17988479e-01
 -1.08316803e+00 -8.46319079e-01 -9.37418044e-01 -9.06809688e-01
 -7.39800990e-01 -8.23568821e-01 -1.13761795e+00 -9.93239820e-01
 -7.13210702e-01 -9.88383591e-01 -1.13888288e+00 -8.87695670e-01
 -1.01868641e+00 -1.14393759e+00 -9.76817846e-01 -6.45358026e-01
 -8.00029933e-01 -7.20942497e-01 -1.15005219e+00 -9.96228099e-01
 -1.10013759e+00 -8.87601376e-01 -1.03569233e+00 -1.00775886e+00
 -1.01366735e+00 -7.15741158e-01 -5.26623726e-01 -1.16333008e+00
 -7.80315757e-01 -1.05523181e+00 -6.55515790e-01 -7.91745842e-01
 -9.11476672e-01 -9.59870458e-01 -9.61032212e-01 -1.12672019e+00
 -9.01478410e-01 -9.75320458e-01 -7.67423213e-01 -1.03242457e+00
 -8.96385431e-01 -8.69644344e-01 -7.80127108e-01 -1.00086832e+00
  5.28182924e-01  6.44188672e-02  5.35354078e-01  3.06154966e-01
  1.01680174e-01 -6.51220754e-02  4.24530320e-02  5.67368567e-01
  5.16996861e-01 -5.74100435e-01  9.20168459e-01  3.66145879e-01
  4.74050976e-02  1.50580823e-01 -1.13571055e-01  5.96406937e-01
  7.28529990e-01  3.83030087e-01  5.82185566e-01  6.84009075e-01
  3.71190578e-01  5.88630378e-01  2.01221272e-01  8.12596262e-01
  8.83746028e-01 -6.79579318e-01 -7.69199505e-02  4.36144650e-01
 -2.80858278e-01  4.18444842e-01  2.44357094e-01  5.63251257e-01
  3.31704944e-01  1.98485315e-01  5.72412968e-01  2.97405183e-01
  7.51035273e-01  5.94703913e-01 -4.86815363e-01  6.07374370e-01
  2.64764965e-01  5.48940659e-01  1.18843369e-01  5.09906471e-01
  5.63228548e-01  3.85321230e-01 -7.57268146e-02 -1.58169121e-01
  5.87502062e-01  3.19117606e-01 -1.91931292e-01 -4.88529690e-02
  5.85990906e-01 -5.50119616e-02  4.37528193e-01  1.28264397e-01
  6.00434482e-01  2.75114357e-01  7.08902717e-01  5.71891546e-01
  3.10340643e-01  3.97777855e-01  9.11081254e-01  5.70061982e-01
 -4.19082269e-02  7.28995949e-02  2.52037775e-02 -7.84435049e-02
  6.66311011e-02 -9.03975777e-03  4.00655493e-02 -2.39761211e-02
 -5.72378375e-03  2.52000652e-02  2.91856634e-03 -3.40971239e-02
 -2.26212461e-02  2.99295075e-02  4.68953792e-03  4.32184152e-02
  1.01114041e-03 -2.97718383e-02 -3.78979295e-02  1.20546715e-03
 -1.86356122e-03 -3.41287404e-02 -7.24760145e-02  4.14793715e-02
 -2.71331649e-02 -2.70766672e-02 -5.10332435e-02  1.80064924e-02
  8.15464277e-03  4.52371165e-02  4.33880873e-02 -3.47647490e-03
 -6.13430068e-02 -2.06489563e-02 -2.84455828e-02 -4.35297564e-03
 -3.08841816e-03  1.53948106e-02  2.88069043e-02  1.84273273e-02
 -5.15423194e-02 -3.01667284e-02 -3.66524383e-02 -2.54366454e-02
 -1.77934524e-02 -1.72879007e-02 -5.53765818e-02 -4.92579490e-02
  1.35267347e-01  1.66933611e-02 -8.36335570e-02 -2.10424047e-03
 -3.04331575e-02 -4.11907993e-02  3.81175913e-02 -7.12251216e-02
 -2.31690928e-02  5.02140746e-02  1.91919412e-02 -1.86322350e-02
  5.15912473e-02  2.79062893e-02 -1.03248373e-01 -2.32155602e-02
 -1.05462515e+00 -8.86060536e-01 -1.06286335e+00 -9.82588708e-01
 -9.33063149e-01 -9.51912701e-01 -1.08944583e+00 -1.05783379e+00
 -8.21717858e-01 -8.88996720e-01 -6.75691068e-01 -1.11809587e+00
 -1.03004479e+00 -1.08388329e+00 -8.83637309e-01 -8.38698149e-01
 -7.49135196e-01 -1.17184985e+00 -9.07661021e-01 -9.07526553e-01
 -1.12127876e+00 -8.10162902e-01 -9.74208891e-01 -8.66126418e-01
 -7.14226484e-01 -7.33562946e-01 -1.03864110e+00 -9.45639670e-01
 -7.55166471e-01 -1.03981769e+00 -1.01314354e+00 -8.78013074e-01
 -1.08435595e+00 -1.07952547e+00 -9.44029748e-01 -7.11751759e-01
 -7.93764055e-01 -7.69337177e-01 -1.08896041e+00 -9.21877503e-01
 -1.00927353e+00 -8.51447463e-01 -1.05991805e+00 -9.50018048e-01
 -9.99724984e-01 -7.07443476e-01 -4.94302869e-01 -1.05884039e+00
 -8.34717095e-01 -1.07872283e+00 -6.15223408e-01 -7.98474014e-01
 -8.52952361e-01 -8.95370603e-01 -9.98298645e-01 -9.88443077e-01
 -8.72609556e-01 -9.35030520e-01 -8.00473273e-01 -1.01879823e+00
 -8.49475443e-01 -8.25372756e-01 -4.61111426e-01 -9.89850581e-01]
lstm_2/lstm_cell/kernel:0
(64, 512)
[[ 0.00494689 -0.24220991  0.0362598  ...  0.05594152 -0.14163889
   0.1964356 ]
 [-0.03483541  0.0444804   0.07649475 ...  0.02298997  0.18818462
  -0.12990169]
 [ 0.02077424  0.32356563 -0.28241763 ... -0.02911252  0.3138939
  -0.06672765]
 ...
 [ 0.36301032  0.03894164  0.02817243 ... -0.24884509  0.17308547
  -0.12238648]
 [ 0.02192306  0.16622785  0.13070299 ... -0.3336209  -0.05590869
   0.01030556]
 [ 0.20527907 -0.09672439  0.24740277 ...  0.14644836 -0.12419492
   0.00805912]]
lstm_2/lstm_cell/recurrent_kernel:0
(128, 512)
[[ 0.25275484 -0.08243469  0.10663955 ... -0.06160617 -0.110416
   0.05135831]
 [-0.10631488  0.11352308 -0.06289514 ...  0.13001588 -0.01348419
  -0.10973527]
 [-0.05842299  0.02543388 -0.22128148 ... -0.00804563  0.13340217
   0.04938284]
 ...
 [ 0.00219761  0.1277083   0.07678451 ... -0.01373162  0.05577778
  -0.13791923]
 [ 0.0076795   0.02859614  0.08603077 ... -0.00626761 -0.31871358
  -0.13114521]
 [-0.00060412  0.16849156 -0.08683562 ... -0.027041   -0.02802053
  -0.15786314]]
lstm_2/lstm_cell/bias:0
(512,)
[-1.22219849e+00 -1.24677587e+00 -1.39637208e+00 -1.03328371e+00
 -1.38535738e+00 -1.22864163e+00 -1.20071828e+00 -1.35349965e+00
 -1.19314754e+00 -1.27205372e+00 -1.23301864e+00 -1.05632937e+00
 -1.34330726e+00 -1.37978923e+00 -1.26329589e+00 -1.31494236e+00
 -1.29123199e+00 -1.16075361e+00 -1.16863263e+00 -1.44806921e+00
 -1.11288357e+00 -1.21714067e+00 -1.13976276e+00 -1.36174309e+00
 -1.17859244e+00 -1.08038139e+00 -1.31711793e+00 -1.05128920e+00
 -1.15207064e+00 -1.21220446e+00 -1.28285563e+00 -1.09455454e+00
 -1.14072120e+00 -1.04300058e+00 -1.26758122e+00 -1.30824935e+00
 -1.20198524e+00 -1.26890063e+00 -1.33592272e+00 -1.31287277e+00
 -1.26843560e+00 -1.44138217e+00 -1.30752945e+00 -1.23321331e+00
 -1.44176888e+00 -1.36733580e+00 -1.25722814e+00 -1.25742364e+00
 -8.93851161e-01 -1.31027567e+00 -1.18722415e+00 -1.16092360e+00
 -1.31002736e+00 -1.42264128e+00 -1.14397252e+00 -1.33933532e+00
 -1.46432912e+00 -7.60768414e-01 -1.41333687e+00 -1.52632356e+00
 -1.33993483e+00 -1.16575444e+00 -1.39135301e+00 -1.05252552e+00
 -1.30017972e+00 -4.15448576e-01 -1.05718255e+00 -1.35675681e+00
 -1.34110558e+00 -1.31141722e+00 -1.11492586e+00 -1.38359296e+00
 -1.36164594e+00 -1.21725619e+00 -1.23669434e+00 -1.16360593e+00
 -1.16154730e+00 -1.30896628e+00 -1.31526411e+00 -1.42199779e+00
 -1.30662906e+00 -1.32280469e+00 -1.26569593e+00 -1.19064367e+00
 -1.17317724e+00 -1.33328009e+00 -1.30047345e+00 -1.17743778e+00
 -1.43680429e+00 -1.12540340e+00 -1.28443980e+00 -1.29628754e+00
 -1.35697544e+00 -1.37713313e+00 -1.15187323e+00 -1.40052915e+00
 -1.05104709e+00 -1.41116738e+00 -1.18161452e+00 -1.43176866e+00
 -1.29655814e+00 -1.48158598e+00 -1.24403071e+00 -1.24827242e+00
 -1.32477880e+00 -1.03140295e+00 -1.33572149e+00 -1.27705038e+00
 -1.37392151e+00 -1.07333434e+00 -1.26031351e+00 -1.27347350e+00
 -1.42453122e+00 -8.71846795e-01 -1.47625363e+00 -1.30982256e+00
 -1.10887527e+00 -1.21180665e+00 -1.50852370e+00 -1.35966909e+00
 -1.31961584e+00 -1.45555019e+00 -1.07065225e+00 -1.25928259e+00
 -1.35528862e+00 -1.05207872e+00 -1.23291755e+00 -1.41148674e+00
  5.86851418e-01  2.09639624e-01  3.85266572e-01  9.10102069e-01
  5.40466011e-01  4.11158204e-01  7.01543272e-01  5.70042551e-01
 -1.70641374e-02  2.29055077e-01  9.62401032e-02  9.95448828e-01
  3.66964847e-01  4.36612278e-01  1.03119299e-01  5.72492659e-01
  8.87051225e-02  2.26606786e-01 -1.47374749e-01  3.19417626e-01
  3.59956175e-01  2.02069357e-01  5.26406355e-02  4.67023253e-01
  9.26673651e-01  6.17605865e-01  3.71229291e-01  3.56889963e-01
  1.30203500e-01  5.43543160e-01  7.61503398e-01  1.06028831e+00
  8.45687985e-01  3.74634385e-01  7.26172149e-01 -9.60437432e-02
  6.07500613e-01  8.21204126e-01  5.74916720e-01  7.60320127e-02
  1.52060464e-01  6.20058894e-01  6.88847899e-01  5.15221655e-01
  1.15979873e-01  7.76444525e-02  6.83367372e-01  7.08291709e-01
  1.84751570e-01  2.40777895e-01  1.51573315e-01  9.52301621e-01
  4.46159303e-01  3.90103489e-01  4.84213270e-02  5.35028568e-03
  2.56049037e-01  8.74241889e-01  2.93629259e-01  4.69028711e-01
  6.52427018e-01  3.37858647e-01  4.53444898e-01 -9.43398401e-02
  3.06422204e-01  2.64827281e-01  6.08086050e-01  8.22428048e-01
  6.17257595e-01  2.89599895e-01 -3.17897856e-01  4.69854981e-01
  4.00752723e-01  3.15756142e-01  7.20003903e-01 -1.64229810e-01
  2.93698698e-01  2.05077693e-01  3.64233285e-01  5.12862444e-01
  5.30494034e-01  7.17082262e-01  6.86936677e-01  4.89052117e-01
  6.62254810e-01  2.42678434e-01  5.68987310e-01  5.18033087e-01
  2.68259406e-01  6.19897693e-02  3.68256927e-01  4.26897883e-01
  2.85219401e-01  4.81196135e-01  3.23040009e-01  3.03715825e-01
  7.32252777e-01  2.88732529e-01  6.34098530e-01  5.63426539e-02
 -1.93875991e-02  4.94014658e-02 -6.88179061e-02  5.96653819e-01
  6.70840204e-01 -2.56286919e-01  3.45699310e-01  4.59136754e-01
  6.38744533e-01  7.28043675e-01  3.59468371e-01  2.82418102e-01
  2.04764143e-01 -1.54009750e-02  1.81027263e-01  3.14021915e-01
  6.70029938e-01 -6.93104863e-02  2.00205564e-01  4.87837285e-01
  2.81874686e-01  1.64772794e-01  9.11721170e-01  3.18730623e-01
  4.50469881e-01 -3.65059257e-01  5.02907276e-01  4.71165806e-01
 -9.83431097e-03  1.42873414e-02 -4.11611237e-02 -1.81366911e-03
 -2.45357049e-03 -9.01461951e-03 -1.72669515e-02 -3.01793311e-03
  2.71101780e-02 -1.45708006e-02 -3.42076719e-02 -4.41462081e-03
 -7.39621464e-03  9.55482386e-03  1.93214566e-02 -3.41315195e-02
  1.95688307e-02 -3.84993060e-03  3.90392058e-02  1.01668425e-02
 -4.20890283e-03 -2.46784650e-02  5.64696081e-03 -1.22250589e-02
  5.61091769e-03  2.27932120e-03  2.39055161e-03  6.24464452e-03
 -2.59850677e-02  2.48476733e-02 -1.35639717e-03 -4.21606284e-03
 -6.60444610e-03 -4.57209125e-02  2.08669193e-02  1.74100474e-02
  3.54210585e-02  3.91208380e-03  1.54168466e-02  3.17765959e-02
  4.07895626e-04  2.46186797e-02  6.47068908e-03  3.18195391e-03
 -3.20106819e-02  1.66889690e-02 -2.74782572e-02  2.58958293e-03
 -9.05907061e-03  2.37036813e-02 -1.21382978e-02 -1.89946522e-03
  2.58989446e-02 -1.14492569e-02  1.63707063e-02 -1.35073122e-02
 -2.21953318e-02 -2.06768047e-02 -1.28874164e-02  6.25715777e-03
  1.17742047e-02 -2.98373867e-02  1.60088148e-02 -1.92884996e-03
  4.39595478e-03  1.77324545e-02 -7.86764361e-03  4.61331336e-03
  1.29617471e-02 -1.06483037e-02  4.27604169e-02  3.01836058e-02
  3.18721496e-02 -4.11490761e-02  1.35424724e-02 -3.44299152e-03
 -1.02886967e-02  1.09301955e-02  3.19633968e-02 -3.17531228e-02
  8.67181341e-04 -6.02739900e-02 -2.86768028e-03  6.70684641e-03
 -7.38026982e-04  3.43738794e-02  2.79803984e-02  1.85687304e-03
 -3.40057984e-02  2.19872538e-02  4.94706146e-02 -3.14974487e-02
  1.80965886e-02  8.03761184e-03  8.58132821e-03  1.73907017e-03
  6.85027568e-03  1.27097068e-03  1.98031366e-02  5.00001274e-02
  1.03112040e-02 -1.53388001e-03 -3.89343388e-02  3.76710994e-03
 -9.34915338e-03 -4.50436212e-02  1.00619653e-02 -1.36604160e-03
 -2.69983569e-03 -2.03955732e-02 -2.08896063e-02 -1.68123338e-02
 -1.56751387e-02  3.35982651e-03  1.77350882e-02  1.32269813e-02
  1.73610393e-02 -6.97946176e-03  1.59723288e-03 -1.67024955e-02
 -5.24061397e-02  2.76916958e-02  1.83301102e-02  2.14041374e-03
 -8.51531047e-03 -2.80436594e-02  1.72236525e-02 -1.38579495e-02
 -1.11126280e+00 -1.21377182e+00 -1.40497267e+00 -9.28425968e-01
 -1.29081976e+00 -1.17841911e+00 -1.12156749e+00 -1.30423725e+00
 -1.07650673e+00 -1.33983588e+00 -1.23364675e+00 -8.62072527e-01
 -1.32265699e+00 -1.35619211e+00 -1.28224015e+00 -1.27710819e+00
 -1.24556971e+00 -1.18688810e+00 -1.12422717e+00 -1.42878258e+00
 -1.12526715e+00 -1.20565140e+00 -1.21280408e+00 -1.37441516e+00
 -1.08339036e+00 -1.00854576e+00 -1.28152466e+00 -1.08550143e+00
 -1.20089495e+00 -1.23255444e+00 -1.21983075e+00 -8.92886579e-01
 -9.92077947e-01 -1.15389073e+00 -1.18916106e+00 -1.30788147e+00
 -1.22405612e+00 -1.16661704e+00 -1.28689647e+00 -1.32017112e+00
 -1.26365006e+00 -1.34818935e+00 -1.24437237e+00 -1.22662175e+00
 -1.44573438e+00 -1.41353297e+00 -1.21788216e+00 -1.20485210e+00
 -9.78540301e-01 -1.22762442e+00 -1.14455676e+00 -9.61708844e-01
 -1.36525035e+00 -1.39757240e+00 -1.14742708e+00 -1.31706548e+00
 -1.42899394e+00 -5.49778998e-01 -1.32721770e+00 -1.39120638e+00
 -1.29412425e+00 -1.16950917e+00 -1.33930314e+00 -1.03600800e+00
 -1.28679776e+00 -5.03603876e-01 -9.84775901e-01 -1.25232327e+00
 -1.28570127e+00 -1.27433491e+00 -1.01225626e+00 -1.37354469e+00
 -1.34984565e+00 -1.24308419e+00 -1.18416250e+00 -1.18056238e+00
 -1.15474391e+00 -1.33061886e+00 -1.32896256e+00 -1.34068882e+00
 -1.29000449e+00 -1.22479749e+00 -1.08009684e+00 -1.17251146e+00
 -1.12311041e+00 -1.37122321e+00 -1.25609553e+00 -1.12458420e+00
 -1.36244154e+00 -1.05750394e+00 -1.32322145e+00 -1.25136387e+00
 -1.31015623e+00 -1.37243986e+00 -1.05995607e+00 -1.30743790e+00
 -1.05974305e+00 -1.27595139e+00 -1.07912195e+00 -1.32404900e+00
 -1.32592034e+00 -1.36070681e+00 -1.26200902e+00 -1.19507980e+00
 -1.23460186e+00 -1.03183448e+00 -1.30914676e+00 -1.27675354e+00
 -1.29498327e+00 -1.03722084e+00 -1.21469462e+00 -1.26459289e+00
 -1.30725074e+00 -8.93981576e-01 -1.43754661e+00 -1.30573797e+00
 -1.10172510e+00 -1.19130623e+00 -1.50156546e+00 -1.38567567e+00
 -1.28967857e+00 -1.43686187e+00 -9.90918458e-01 -1.25169814e+00
 -1.31782961e+00 -1.05056775e+00 -1.13728011e+00 -1.37191582e+00]
lstm_3/lstm_cell/kernel:0
(128, 1024)
[[ 0.05074691  0.02877313  0.03614267 ... -0.1461374   0.0724606
  -0.00052221]
 [-0.17529365 -0.01284257  0.05532654 ...  0.20423616  0.06026758
  -0.03957452]
 [ 0.02557399 -0.03034859  0.04989774 ...  0.11333334 -0.02917527
   0.16970739]
 ...
 [ 0.00845357  0.01548038 -0.03876003 ...  0.06858122  0.02396028
  -0.0268514 ]
 [-0.22059375  0.00795168 -0.05969391 ...  0.07169098 -0.11252596
   0.09871059]
 [-0.05437634 -0.03651208  0.02698846 ... -0.2669336  -0.14666376
   0.15653321]]
lstm_3/lstm_cell/recurrent_kernel:0
(256, 1024)
[[ 0.0309414   0.04548284 -0.02869959 ... -0.06201332 -0.00303711
   0.0697726 ]
 [ 0.02773931  0.00238013  0.03862407 ... -0.00502541  0.01886162
  -0.0492135 ]
 [ 0.04356195  0.10437568 -0.03145524 ...  0.0168394  -0.02447283
  -0.04271259]
 ...
 [ 0.01739334  0.01476292 -0.0646515  ...  0.01208476 -0.05400424
  -0.03013657]
 [-0.02379882 -0.04783807 -0.00151411 ... -0.07039965  0.01740458
   0.09363467]
 [ 0.07819295  0.05716538  0.02291806 ...  0.05097672  0.11385626
  -0.19122171]]
lstm_3/lstm_cell/bias:0
(1024,)
[-1.6110144 -1.4652474 -1.3520031 ... -1.3640294 -1.3652865 -1.2691135]
lstm_4/lstm_cell/kernel:0
(256, 512)
[[-0.06451797 -0.08519823 -0.03828022 ...  0.04047927  0.03073242
   0.12740159]
 [-0.26077595  0.08617265 -0.03036973 ...  0.09816639 -0.0561991
  -0.08151414]
 [ 0.03294654 -0.03159411  0.15788758 ... -0.12139902 -0.04056997
  -0.0032341 ]
 ...
 [-0.07022805 -0.09025522 -0.04661329 ... -0.15070225 -0.06207313
  -0.18368107]
 [-0.001626    0.06707653  0.04032673 ...  0.06854621 -0.06053054
  -0.01103014]
 [-0.11653757  0.10871223  0.12044967 ...  0.07018412  0.13235262
   0.07784262]]
lstm_4/lstm_cell/recurrent_kernel:0
(128, 512)
[[-0.1814466   0.09448801  0.08756691 ...  0.14968523  0.09337181
   0.10568154]
 [-0.30804843  0.45850056  0.17363499 ... -0.08458626  0.07817089
   0.02805298]
 [ 0.17211348 -0.34858912 -0.2983569  ... -0.12977116 -0.15786065
  -0.0065328 ]
 ...
 [ 0.27813148 -0.38355932 -0.13131216 ... -0.20530835  0.02088588
  -0.04588658]
 [ 0.36916894 -0.2704634   0.02829884 ... -0.03455453  0.00406559
   0.04519477]
 [-0.225369    0.18378419  0.04227493 ... -0.0505417  -0.00656198
   0.2253932 ]]
lstm_4/lstm_cell/bias:0
(512,)
[-1.16622663e+00 -1.28474498e+00 -1.44103336e+00 -1.33760083e+00
 -1.31147385e+00 -1.47655582e+00 -1.30403936e+00 -1.35089648e+00
 -1.47061288e+00 -1.27562237e+00 -1.35093272e+00 -1.51154339e+00
 -1.32795906e+00 -1.46113014e+00 -1.38885379e+00 -1.37459671e+00
 -1.48271203e+00 -1.65100861e+00 -1.26822424e+00 -1.20639169e+00
 -1.17044759e+00 -1.53794360e+00 -1.35403895e+00 -1.36522031e+00
 -1.36193407e+00 -1.24714422e+00 -1.33575332e+00 -1.43090713e+00
 -1.31073952e+00 -1.35940647e+00 -1.62839830e+00 -1.34194613e+00
 -1.36485600e+00 -1.20219553e+00 -1.34205461e+00 -1.30940080e+00
 -1.46080935e+00 -1.37272370e+00 -1.61675298e+00 -1.39201534e+00
 -1.41361928e+00 -1.29472804e+00 -1.46138930e+00 -1.47855806e+00
 -1.38388920e+00 -1.70079231e+00 -1.18823004e+00 -1.32926297e+00
 -1.43448055e+00 -1.29091191e+00 -1.37778699e+00 -1.40978634e+00
 -1.45410836e+00 -1.42920816e+00 -1.48069501e+00 -1.38771677e+00
 -1.37325692e+00 -1.41757846e+00 -1.45728207e+00 -1.57944787e+00
 -1.24663591e+00 -1.38376510e+00 -1.31349838e+00 -1.28206635e+00
 -1.37819433e+00 -9.62641120e-01 -1.37379003e+00 -1.37063432e+00
 -1.38491225e+00 -1.36475956e+00 -1.38965416e+00 -1.42921579e+00
 -1.44522846e+00 -1.35948074e+00 -1.49856043e+00 -1.28703904e+00
 -1.35223997e+00 -1.29605889e+00 -1.31709301e+00 -1.23792791e+00
 -1.72573972e+00 -1.45355332e+00 -1.46416867e+00 -1.37314737e+00
 -1.29919648e+00 -1.38844132e+00 -1.50237203e+00 -1.50464058e+00
 -1.41841662e+00 -1.34682202e+00 -1.26837862e+00 -1.44576013e+00
 -1.37390876e+00 -1.28117776e+00 -1.39681816e+00 -1.33775973e+00
 -1.37476158e+00 -1.46961439e+00 -1.15702593e+00 -1.34021461e+00
 -1.41941297e+00 -1.41658139e+00 -1.21443093e+00 -1.49572420e+00
 -1.32771540e+00 -1.51356757e+00 -1.50666726e+00 -1.38425767e+00
 -1.33354807e+00 -1.47755885e+00 -1.19915891e+00 -1.48593473e+00
 -1.59675908e+00 -1.43055975e+00 -1.21363533e+00 -1.48895621e+00
 -1.37678850e+00 -1.53241706e+00 -1.30620134e+00 -1.30002916e+00
 -1.32832062e+00 -1.34360182e+00 -1.27597725e+00 -1.27961671e+00
 -1.41009343e+00 -1.34473884e+00 -1.37940061e+00 -1.33641994e+00
  4.77977693e-01  8.31934273e-01  4.46512461e-01  7.84854591e-01
  2.40910485e-01 -1.21834584e-01  1.87051207e-01 -1.24198288e-01
  5.81450343e-01  3.91620517e-01  7.21220434e-01  4.55060333e-01
  4.82146084e-01  3.91021580e-01  4.89878267e-01 -2.40455568e-01
  2.38045886e-01 -1.92061692e-01  2.64495283e-01  3.88317287e-01
 -3.26299459e-01 -5.29762581e-02  2.18097627e-01 -2.99577173e-02
  6.30842984e-01  3.85973215e-01  8.02318871e-01  3.17607313e-01
  7.38904715e-01  2.33114704e-01 -2.24203214e-01  1.45042032e-01
  4.45437223e-01  1.05941617e+00  4.85589683e-01  2.29294121e-01
  6.61811471e-01  1.97518080e-01  5.67917049e-01 -1.14255704e-01
 -8.39128196e-02  6.82339013e-01  5.05484462e-01  6.14731669e-01
  7.09089160e-01  1.28076067e-02  4.71745193e-01  4.61850971e-01
  1.76137313e-01  6.25044286e-01  4.27154899e-01  1.97348878e-01
  3.85383189e-01  1.37465447e-01 -1.73390403e-01  7.15563953e-01
  2.25165814e-01  1.12806745e-01  4.78139758e-01  1.66307822e-01
  5.43778062e-01  5.95506847e-01  1.81469604e-01  5.81410229e-01
  5.94091892e-01 -5.27338505e-01  6.22269392e-01  6.83133483e-01
  6.57422066e-01  5.00213981e-01  1.30737826e-01  2.62739301e-01
  4.51879054e-01  6.88353598e-01 -1.71196714e-01  6.68229699e-01
  5.64590216e-01  3.74553323e-01  4.49240506e-01  7.31664300e-01
 -3.94838423e-01  4.38934416e-01  5.91199040e-01  2.75339067e-01
  9.25483182e-02  1.12292074e-01  6.84819460e-01 -2.35581975e-02
  5.26902616e-01  6.67222619e-01  2.39440307e-01  4.51090276e-01
  2.57653832e-01  4.61528599e-01  5.59384525e-01  3.30972224e-01
  4.07774955e-01 -3.21699768e-01  3.68169010e-01  1.27253205e-01
  5.37997127e-01  4.04761508e-02  8.50583076e-01 -4.65823352e-01
  6.28534973e-01  2.30494589e-01  4.25327808e-01  2.04381987e-01
  3.83016706e-01 -1.41970903e-01  3.47935617e-01  9.42257762e-01
 -1.21290974e-01  2.75875390e-01 -6.70872023e-03  3.09879810e-01
  8.46902013e-01 -4.95446697e-02  2.62401909e-01 -2.34275028e-01
  4.49983895e-01  4.84150440e-01  3.75839084e-01  1.23071231e-01
  1.23495139e-01  7.69107997e-01  6.23720109e-01  6.30685747e-01
 -2.98009999e-03  1.55916028e-02  2.76240967e-02 -6.02483749e-03
  7.31760403e-04 -1.96759799e-03 -4.08046059e-02 -3.14872217e-04
 -1.24709001e-02  6.18871208e-03 -1.60209108e-02  2.21199989e-02
 -3.33513063e-03 -2.27545835e-02  4.84909583e-03  5.61239012e-03
  4.98027308e-03  2.21425910e-02  2.32058465e-02 -9.94761847e-03
  4.77359518e-02 -2.36337910e-05  1.51931141e-02 -3.91767025e-02
 -3.51858279e-03  2.21380834e-02 -8.06474313e-03 -1.49478475e-02
 -1.73087269e-02 -2.27658515e-04 -7.93877020e-02 -6.47880696e-03
  1.18243508e-03 -1.70738697e-02 -1.86269190e-02  1.03831636e-02
 -7.41186598e-03  6.28893543e-03 -4.85817455e-02 -1.97723322e-03
 -1.40292542e-02  2.30043586e-02  2.83370935e-03  1.37925316e-02
 -6.29293732e-03  3.70271429e-02 -1.84196979e-02  1.94745755e-03
 -7.01076314e-02  2.11023912e-02 -1.32615929e-02  5.36323059e-03
  7.74874631e-03  1.46785844e-02  2.00655852e-02  1.66183040e-02
  1.31825777e-02  2.24705786e-02  6.03527622e-03  4.28202897e-02
  3.33836935e-02  2.30542999e-02 -8.77680723e-03  2.91538760e-02
  1.52856829e-02  3.77778485e-02  1.36374785e-02 -2.35753581e-02
 -8.78506154e-03 -9.20420280e-04  3.22237276e-02 -3.16191241e-02
  7.47987628e-03  7.50297960e-03 -3.87360016e-03  9.76548344e-03
 -9.23962682e-04 -1.09772030e-02 -6.00588322e-02  8.20885040e-03
 -4.63009179e-02  1.73160508e-02  2.56563537e-03  3.05413902e-02
 -3.66093107e-02 -6.21903408e-03 -4.35312279e-03  3.49821299e-02
  1.00676892e-02  7.92434788e-04  3.54296379e-02 -2.04340536e-02
 -6.08556997e-03 -2.16728728e-03 -8.87429714e-03  1.36872306e-02
  1.36754643e-02 -3.35846655e-03  1.35414293e-02  6.46150205e-03
  4.06971294e-03 -1.07801403e-03 -1.21266590e-02  6.18629809e-03
  1.05712106e-02  6.42408617e-03  7.22019700e-03 -3.53484154e-02
 -3.53409071e-03  9.23879072e-02 -1.18788853e-02 -9.50890419e-04
  1.53019186e-02 -1.56413354e-02  8.42906162e-03  1.48023330e-02
  5.03876479e-03 -5.24001953e-04  2.37996615e-02 -6.39403937e-03
  1.22346170e-02  3.25544663e-02  4.71922802e-03 -1.17368586e-02
  5.11111924e-04  1.13985743e-02  1.99224637e-03 -3.41471867e-03
 -1.22974503e+00 -1.09377241e+00 -1.29233694e+00 -1.23252439e+00
 -1.30284750e+00 -1.60441947e+00 -1.29373360e+00 -1.32166469e+00
 -1.44151723e+00 -1.25049675e+00 -1.22556961e+00 -1.45182633e+00
 -1.24179363e+00 -1.42269754e+00 -1.25552523e+00 -1.37108517e+00
 -1.45738268e+00 -1.53737497e+00 -1.23269641e+00 -1.20717454e+00
 -1.17702603e+00 -1.44956779e+00 -1.24983621e+00 -1.29029787e+00
 -1.26773572e+00 -1.21610546e+00 -1.20714688e+00 -1.44063377e+00
 -1.15209997e+00 -1.40257692e+00 -1.60490882e+00 -1.27801323e+00
 -1.37776935e+00 -1.02239501e+00 -1.29744387e+00 -1.30261528e+00
 -1.41594434e+00 -1.28480804e+00 -1.38250184e+00 -1.43394685e+00
 -1.39536285e+00 -1.22643661e+00 -1.25132120e+00 -1.31074023e+00
 -1.41564476e+00 -1.27496839e+00 -9.93494213e-01 -1.29225743e+00
 -1.37688935e+00 -1.10259700e+00 -1.27921128e+00 -1.38381159e+00
 -1.34154344e+00 -1.41095614e+00 -1.43692446e+00 -1.29927015e+00
 -1.26047075e+00 -1.37112069e+00 -1.39911103e+00 -1.58045697e+00
 -1.17463708e+00 -1.23427939e+00 -1.27316535e+00 -1.26428092e+00
 -1.28028083e+00 -9.57384169e-01 -1.28346252e+00 -1.29480410e+00
 -1.29387558e+00 -1.27526331e+00 -1.42581499e+00 -1.42098737e+00
 -1.42220783e+00 -1.25310671e+00 -1.47887647e+00 -1.31929839e+00
 -1.33495331e+00 -1.26195884e+00 -1.41208351e+00 -1.22140586e+00
 -1.58945680e+00 -1.41576099e+00 -1.38119793e+00 -1.22790611e+00
 -1.32764864e+00 -1.35169768e+00 -1.41764534e+00 -1.52224815e+00
 -1.42684889e+00 -1.31030917e+00 -1.18619442e+00 -1.44630885e+00
 -1.45778561e+00 -1.27403235e+00 -1.33720469e+00 -1.29329419e+00
 -1.17587602e+00 -1.29958570e+00 -1.01804590e+00 -1.37755513e+00
 -1.23381162e+00 -1.31056118e+00 -1.14317060e+00 -1.44955325e+00
 -1.24588215e+00 -1.45924902e+00 -1.37548089e+00 -1.23581135e+00
 -1.29966486e+00 -1.47569954e+00 -1.14496684e+00 -1.28535306e+00
 -1.55647898e+00 -1.35609531e+00 -1.10011041e+00 -1.41389024e+00
 -1.23269570e+00 -1.50628412e+00 -1.33651948e+00 -1.23992813e+00
 -1.34212136e+00 -1.38256967e+00 -1.29186797e+00 -1.30982053e+00
 -1.37181818e+00 -1.20787656e+00 -1.33938754e+00 -1.25804746e+00]
lstm_5/lstm_cell/kernel:0
(128, 256)
[[ 0.45615733 -0.07461518 -0.12491924 ... -0.15595789  0.12149731
  -0.2749342 ]
 [-0.22583073 -0.08971073 -0.06209735 ... -0.27247334 -0.18539983
   0.02019292]
 [ 0.29906875  0.03594204 -0.02718838 ...  0.05592368 -0.00593141
   0.15129049]
 ...
 [ 0.3627083  -0.01480346  0.09523157 ...  0.03958082 -0.1916233
   0.13930894]
 [ 0.23040561  0.10516544  0.15568353 ... -0.01445573  0.00508466
   0.19485635]
 [-0.05542195 -0.14264184 -0.0713556  ...  0.03695315  0.05894706
  -0.06522708]]
lstm_5/lstm_cell/recurrent_kernel:0
(64, 256)
[[-3.9258909e-01 -1.9257417e-01  4.9513020e-02 ... -4.9975365e-01
  -1.9316386e-01 -3.7486151e-01]
 [ 3.3539519e-02 -2.6428977e-01 -3.4518216e-02 ... -1.9063967e-01
   5.8611117e-02 -1.0496689e-02]
 [ 2.8931072e-02 -5.3229962e-02 -4.3320946e-02 ... -8.6188570e-02
  -2.7403089e-01 -4.8797238e-03]
 ...
 [-2.1748210e-01 -4.0006176e-02 -8.3172947e-02 ... -5.9392798e-01
  -1.6521026e-01 -1.8800202e-01]
 [ 7.8136906e-02  4.9944449e-02 -4.4223433e-04 ... -1.6685814e-02
   1.4796491e-01 -1.0596578e-02]
 [-8.7028041e-02  2.0852071e-01 -1.6832672e-01 ... -4.3460358e-02
  -6.3627429e-02  3.2752287e-01]]
lstm_5/lstm_cell/bias:0
(256,)
[-1.65350831e+00 -1.46123064e+00 -1.52868736e+00 -1.34960818e+00
 -1.00272882e+00 -1.22173417e+00 -1.47894382e+00 -1.39414752e+00
 -1.16307676e+00 -1.22855306e+00 -1.40628195e+00 -1.20690823e+00
 -1.48663795e+00 -1.31620002e+00 -1.08921361e+00 -1.48993003e+00
 -1.53674531e+00 -1.19085252e+00 -1.33201826e+00 -1.45175958e+00
 -1.41047382e+00 -1.24693143e+00 -1.36085045e+00 -1.49604118e+00
 -1.51877952e+00 -1.22847915e+00 -1.61853290e+00 -1.35478234e+00
 -1.36885059e+00 -1.30153596e+00 -1.49006331e+00 -1.32676327e+00
 -1.11159587e+00 -1.48600173e+00 -1.38359201e+00 -1.49127483e+00
 -1.28235960e+00 -1.45311570e+00 -1.24130964e+00 -1.33855414e+00
 -1.38024664e+00 -1.38484204e+00 -1.34901977e+00 -1.45810020e+00
 -1.38723826e+00 -1.26855421e+00 -1.51583862e+00 -1.43233609e+00
 -1.37638330e+00 -1.27692521e+00 -1.30817771e+00 -1.30191255e+00
 -1.38007164e+00 -1.31288755e+00 -1.13936174e+00 -1.54555559e+00
 -1.29192197e+00 -1.14609528e+00 -1.26742136e+00 -1.35243201e+00
 -1.44283903e+00 -1.43162990e+00 -1.41144800e+00 -1.18660223e+00
  2.60238022e-01  4.79720414e-01  3.92525405e-01  6.13599300e-01
 -1.25061840e-01  5.77213109e-01  5.26123524e-01  5.80000579e-01
  7.39848733e-01  3.74602556e-01  1.82632491e-01 -6.14320822e-02
  5.57083607e-01  6.23802900e-01  7.48765767e-01  1.95438545e-02
 -1.17472984e-01  4.66184765e-01  3.57333690e-01  7.89846643e-04
 -2.79522896e-01  7.05445230e-01  3.48662436e-01  1.79502234e-01
  2.80996323e-01  7.20957220e-01  1.98724255e-01  3.67070973e-01
  6.83736265e-01  8.13724637e-01  6.70783997e-01  8.13256979e-01
  6.68342173e-01  2.11865276e-01  3.57077301e-01  3.12391073e-01
  5.90325773e-01  4.74571079e-01  6.37543440e-01  4.60375130e-01
  5.26042044e-01 -1.50749451e-02  5.16803980e-01  5.51826477e-01
  2.99215883e-01  1.78815097e-01  4.55008447e-01  3.41434181e-02
  2.25951299e-01  3.73304456e-01  5.94748676e-01  6.48104668e-01
  5.17663240e-01  6.63599312e-01  6.43926084e-01  3.11843187e-01
  6.21286094e-01  4.23323393e-01  7.27617323e-01  5.67242384e-01
  4.60035503e-01  4.11546022e-01  2.82401174e-01  6.57100320e-01
  1.76310213e-03 -9.17786360e-03 -7.43163563e-03  2.59550884e-02
 -2.49978621e-02  2.16596071e-02 -7.70579325e-03  1.62067898e-02
  2.03678347e-02  5.28447935e-03  3.05352751e-02 -4.52908128e-03
  1.35581214e-02 -7.26714311e-03 -5.11971936e-02  8.60552210e-03
 -2.20542047e-02 -3.81908752e-02  1.79770030e-02  6.61456957e-03
 -1.00365644e-02  1.70508418e-02  1.28002474e-02 -7.06162490e-03
  1.69644714e-04 -3.44835520e-02 -3.11785694e-02 -5.78448037e-03
  2.56309789e-02  4.13097674e-03  7.99857173e-03 -1.72211286e-02
 -2.90542748e-02  1.92183815e-02 -1.23225832e-02  9.93326027e-03
 -1.55645632e-03 -2.06380468e-02  2.26489524e-03 -2.26505543e-03
  2.95056449e-03 -1.33807668e-02  8.69948417e-03  1.06668612e-03
 -9.89717804e-03  4.05362248e-03 -5.04521001e-03  2.85460167e-02
  1.02603259e-02 -1.75190177e-02  1.14281569e-02 -9.49588697e-03
 -9.82602593e-03 -6.29946869e-03  6.51041698e-03 -1.80721246e-02
 -5.49977366e-03  1.31947696e-02 -6.01243973e-03  9.40311607e-03
 -9.87559929e-03 -1.32411998e-02  2.55632643e-02 -1.77618172e-02
 -1.01591957e+00 -1.46845484e+00 -1.44689310e+00 -1.44722486e+00
 -9.41664517e-01 -1.24442470e+00 -1.35763049e+00 -1.42593515e+00
 -1.16807652e+00 -1.14135993e+00 -1.53628492e+00 -1.12976754e+00
 -1.54158437e+00 -1.29179418e+00 -7.36877382e-01 -1.28240037e+00
 -1.56141651e+00 -1.26825225e+00 -1.14800000e+00 -1.33840585e+00
 -1.35780537e+00 -1.14314938e+00 -1.43953562e+00 -1.35045791e+00
 -1.51751149e+00 -1.19214404e+00 -1.31674314e+00 -1.27012849e+00
 -1.28059447e+00 -1.21338177e+00 -1.20423877e+00 -1.31360829e+00
 -1.16242683e+00 -1.34228730e+00 -1.37741888e+00 -1.33588290e+00
 -1.43912387e+00 -1.49642074e+00 -1.21276021e+00 -1.36104548e+00
 -1.31577528e+00 -1.15806866e+00 -1.21171236e+00 -1.39407194e+00
 -1.49656725e+00 -1.30823517e+00 -1.51366317e+00 -1.35005784e+00
 -1.25187862e+00 -1.22674656e+00 -1.35291386e+00 -1.26446807e+00
 -1.39932585e+00 -9.40024257e-01 -9.47260916e-01 -1.47752726e+00
 -1.25789356e+00 -1.25120795e+00 -1.14566362e+00 -1.33727348e+00
 -1.35935700e+00 -1.39497912e+00 -1.42696249e+00 -1.17225480e+00]
lstm_6/lstm_cell/kernel:0
(64, 128)
[[-0.35282898 -0.2161467  -0.24020734 ... -0.0787466   0.30162138
   0.14827468]
 [-0.01894984 -0.09171703 -0.18981478 ... -0.05221825  0.44473282
   0.09571048]
 [ 0.04031205 -0.0095709  -0.14068094 ... -0.23668322  0.18152303
  -0.17846152]
 ...
 [-0.02084093 -0.09146035 -0.1129788  ...  0.02327245  0.07638638
  -0.19149539]
 [ 0.43590078 -0.00989928  0.20907825 ... -0.06770678 -0.3156869
   0.04607699]
 [-0.05410248  0.08341104  0.18006925 ... -0.10904706  0.03805129
   0.2536671 ]]
lstm_6/lstm_cell/recurrent_kernel:0
(32, 128)
[[ 0.04137699  0.0987292  -0.5447397  ... -0.13460052  0.584084
  -0.24589293]
 [ 0.78494453 -0.00452307  0.36529905 ... -0.04342895 -0.1240992
  -0.070232  ]
 [-0.92922    -0.06204129 -0.7090519  ... -0.3436043   0.08728141
  -0.1528543 ]
 ...
 [-0.7835453  -0.03121286 -0.22592165 ... -0.35582802 -0.00796757
  -0.07220926]
 [ 0.7019426  -0.2192116   0.07243925 ...  0.37932822 -0.50337464
   0.01060063]
 [ 0.08870019  0.11309918  0.14866976 ... -0.1091873   0.18333991
  -0.0305202 ]]
lstm_6/lstm_cell/bias:0
(128,)
[-1.0062103  -1.062285   -0.8154255  -1.7590793  -1.211166   -0.6557662
 -1.8671888  -0.9594333  -0.25845116 -1.3267996  -0.666358   -0.9945451
 -0.89034915 -0.23629451 -0.46539003 -1.1997714  -0.2137938  -1.6027676
 -1.2484481  -1.1931326  -1.3179445  -0.993283   -0.995761   -0.19932988
 -0.40634742 -1.511558   -0.29512605 -0.3665712  -0.951832   -0.5415172
 -0.9883398  -1.9172667   0.16108692 -0.6152203   0.67037416  0.00634323
 -0.7677162   0.82996     0.07806133 -0.59369487  1.0660185   0.45243406
  1.0144279  -0.07204831  0.536963    1.1181635   1.0051649  -0.5880184
  0.43463865 -0.32527795 -0.36886722  0.3464761   0.29297784  1.1366203
 -0.444083    1.1907337   0.99637705 -0.12685326  1.04798     1.0263783
  0.47305608  0.97607356  0.5559028  -0.13274056  0.00910076 -0.18519072
  0.04685809 -0.017899   -0.17993763  0.02590058 -0.06936341 -0.02248555
  0.24578501 -0.0338295  -0.0242351  -0.0236441  -0.1418064   0.16227768
 -0.23958457 -0.15535294 -0.24148124 -0.01304278 -0.10030757 -0.12872253
 -0.07542334 -0.11592507 -0.11649201  0.09212348  0.18664159 -0.014909
  0.09099281 -0.09751962 -0.09898074  0.09654357 -0.07543916 -0.04570086
 -0.8591138  -1.085053   -0.8104974  -1.7709186  -1.2360176  -0.70577085
 -1.8739417  -0.9662331  -0.191906   -1.284458   -0.59756744 -1.0059599
 -0.8380756  -0.1379876  -0.320893   -1.2127877  -0.30062282 -1.5835098
 -1.2510079  -0.818442   -1.1637989  -0.41318005 -0.99102813 -0.12148605
 -0.4125373  -1.5065494  -0.22293937 -0.3507533  -0.84008753 -0.46457738
 -0.89878374 -1.859975  ]
dense/kernel:0
(32, 1)
[[ 6.70180246e-02]
 [-1.09420046e-01]
 [ 1.15838610e-01]
 [ 3.40694152e-02]
 [-1.02938950e-01]
 [ 9.98415723e-02]
 [-7.97059759e-02]
 [ 6.33886233e-02]
 [ 3.10790479e-01]
 [ 6.66183478e-04]
 [-6.73941895e-02]
 [ 6.24916069e-02]
 [-1.10982336e-01]
 [ 2.08005354e-01]
 [ 7.27873528e-03]
 [-9.19150785e-02]
 [-6.80619776e-02]
 [-6.81283697e-02]
 [ 2.37187662e-04]
 [ 9.57750063e-03]
 [ 5.99244013e-02]
 [-1.12149402e-01]
 [-8.47358108e-02]
 [ 2.32122660e-01]
 [ 1.77557424e-01]
 [ 8.23276639e-02]
 [ 1.74393207e-01]
 [ 1.23534712e-03]
 [-8.39991346e-02]
 [ 1.44666538e-01]
 [-1.25005379e-01]
 [-4.99864370e-02]]
dense/bias:0
(1,)
[0.25976977]
